nep4 3 Li Nb O 
cutoff 6 6 98 98
n_max 8 6
basis_size 12 8
l_max 4 2 0
ANN 50 0
 -3.2347206e-02
  5.9365567e-02
 -1.4516730e-03
 -1.9334784e-02
  5.7901528e-02
 -8.1210248e-03
  7.1427538e-03
  7.0392634e-03
 -2.9574400e-03
  5.7986588e-03
  3.3762357e-03
 -7.8221438e-03
 -4.5045640e-02
  9.6792197e-03
 -2.1111148e-03
 -1.8230118e-01
  1.2014753e-03
 -1.7352453e-03
  2.1855086e-02
  1.9910822e-02
 -2.7448330e-02
  5.1302146e-02
  1.2395880e-03
 -1.8518969e-03
 -8.1252560e-02
 -4.2687454e-03
 -1.8576968e-02
  2.6309764e-02
 -3.2126542e-02
 -1.4205039e-02
  4.0527642e-02
  1.7387435e-03
  1.7641054e-02
 -6.9119781e-02
  2.7906710e-02
 -3.6333382e-02
  2.1263534e-02
 -2.8385144e-02
 -1.7604802e-02
 -5.9968960e-03
 -1.3328906e-02
  5.1177070e-03
  1.1580501e-02
 -1.8953405e-02
  7.9064565e-03
 -4.6880669e-03
 -1.6362356e-01
 -2.6051588e-02
  2.0183947e-02
  7.6325634e-03
 -5.0807726e-03
  6.1936215e-03
 -6.1890617e-02
 -4.1325513e-02
 -2.5207603e-02
  2.5169386e-02
 -7.1946131e-03
 -1.7176593e-02
  5.9241634e-02
 -3.3908819e-03
 -3.1022863e-02
  7.6800235e-02
  1.4425435e-02
 -5.6998964e-02
  1.2065219e-02
  2.0069212e-03
  4.7268393e-03
 -3.8726848e-02
 -2.5482858e-03
 -2.7461741e-02
  1.6293047e-02
  2.3671780e-02
  8.4119858e-03
 -1.4473135e-03
 -1.4299787e-02
  1.9684272e-02
  2.1498539e-02
 -6.6359417e-04
  6.4122062e-03
 -4.0578796e-03
 -2.0153372e-02
 -8.9630141e-04
 -1.5380013e-02
 -1.7922722e-02
  1.0966858e-01
  1.0305484e-02
  9.1904262e-03
  2.4126791e-03
  1.7977295e-02
 -2.5793610e-02
  7.1590617e-02
 -2.7837476e-02
  1.0481710e-02
  2.4873929e-02
  3.3290985e-03
 -9.8372428e-03
 -8.6189173e-03
  2.9365083e-03
 -5.5243754e-01
  2.4918731e-02
  4.0453099e-02
 -1.0545661e-02
 -1.8700145e-02
  1.1740242e-02
  2.9907415e-02
 -1.5627834e-03
 -8.9658638e-03
 -1.0494534e-02
  4.5888885e-03
  4.3117546e-02
 -9.3234805e-03
 -8.9088350e-04
  2.4036588e-02
 -3.0346068e-02
  3.8330734e-02
  1.7195983e-02
 -2.9591739e-02
  6.6971239e-03
 -4.1906312e-03
 -2.1136867e-02
 -3.1463224e-02
  2.9554809e-02
 -5.2639246e-01
 -5.8964468e-03
 -4.3857503e-03
 -4.4952109e-03
  8.7358215e-04
 -1.6770864e-02
 -3.4026797e-03
  1.7331578e-02
 -4.3348704e-02
 -1.5444088e-02
  9.4561838e-04
 -1.6445000e-02
 -3.2574423e-02
 -2.0391401e-02
  3.9430466e-04
  2.2216503e-02
 -7.5702136e-04
  1.1571794e+00
 -1.1612968e-02
 -8.9811068e-03
  4.9728802e-03
 -1.2635967e-03
  1.1734874e-02
  1.6954990e-02
  3.1877112e-02
 -3.6985796e-02
 -2.7692238e-02
  2.7812103e-02
  2.0412509e-03
  2.7176335e-03
  3.2551728e-02
  3.9540543e-03
 -1.0184981e-02
 -2.0025592e-02
  2.6320655e-02
 -1.0815685e-02
  5.0467295e-03
  1.1081522e-02
 -5.5893050e-03
 -9.0996530e-03
  9.9304924e-03
  3.4118861e-02
 -9.4275987e-03
  2.2391202e-02
  2.8687909e-03
 -3.0002408e-03
  2.1150881e-02
 -4.9070865e-02
  1.4416196e-03
 -3.5065129e-02
  3.5220977e-02
 -3.7149803e-03
  8.7366533e-01
  1.0399406e-02
 -1.3217376e-02
  3.2892168e-02
 -1.9561976e-02
  1.3192873e-02
 -1.9119233e-02
  1.2278388e-01
 -1.7347675e-02
 -2.8723765e-02
  3.9516348e-02
 -1.0719425e-01
  4.1496448e-02
  7.4992566e-03
 -1.8570948e-02
  6.4741420e-03
 -3.6659930e-02
  6.3091102e-03
 -3.5714261e-02
  1.0851747e-02
  2.7086675e-02
  2.0560972e-02
  9.5347334e-03
  4.8744897e-03
 -1.5489780e-02
 -3.3652920e-02
  1.7604510e-04
  3.2725409e-02
  5.0621601e-03
 -1.3851975e-02
  2.1566641e-02
  1.3729062e-02
 -2.7021553e-02
  5.1489573e-02
  2.4226362e-02
 -5.6757045e-01
  5.7634469e-03
 -2.7466794e-03
  2.5666308e-01
  3.8222196e-03
  5.9894074e-02
  2.3960233e-02
 -3.7940875e-02
 -3.3173356e-02
  8.7967385e-03
 -3.8892489e-02
 -1.6843174e-02
  1.1827311e-02
 -8.1958063e-03
 -4.3672831e-03
  5.0637203e-01
  3.1208238e-03
  4.2975578e-03
  3.4388108e-03
  1.2887854e-02
  1.4924519e-01
 -1.9154903e+00
  2.1371802e-02
  2.0597421e-03
 -7.2083942e-04
 -1.1001897e-02
  2.5782039e-02
 -4.6890602e-03
 -8.6302301e-05
 -7.7180243e-03
  5.6697655e-02
  1.9839427e-02
 -3.8238823e-02
  2.0164732e-02
 -1.1953374e-02
 -1.0985713e-02
 -3.7241057e-02
 -3.6615410e-03
 -5.7453993e-03
 -6.0531255e-02
  2.0929875e-03
 -2.4992129e-02
 -3.4294255e-02
 -1.3441853e-02
 -6.6662407e-03
  3.3647721e-03
 -2.0804465e-02
  2.6697603e-03
  1.6615238e-02
 -4.5575039e-03
 -3.0046020e-04
  1.6342854e-02
  1.5312020e-02
  3.7978407e-02
 -1.3199106e-02
 -1.7770121e-02
 -4.5496910e-03
  3.8515282e-01
  1.9641269e-03
 -3.3311627e-03
  8.9979665e-03
  2.3505781e-02
 -1.8543810e-02
 -1.0281132e-03
  3.2531798e-03
  1.6515596e-03
 -9.7405007e-03
 -1.2071919e-02
 -1.3201184e-02
 -5.6417044e-02
 -1.0352787e-03
  3.4583187e-01
 -3.1594116e-02
 -2.3548691e-02
  2.2237843e-02
  2.3753210e-03
  8.7199975e-03
 -2.3596914e-02
 -7.6474859e-03
 -2.0703285e-03
 -8.9087002e-03
 -4.8834169e-03
  4.0228204e-03
 -9.5400224e-03
  3.1228790e-02
 -4.2989463e-02
 -5.9918715e-03
 -1.5551785e-02
  2.3308033e-02
  3.3970039e-02
  1.5461997e-02
  7.1774661e-03
 -6.9863228e-03
  1.5650917e-02
 -4.8078876e-03
 -1.0849484e-01
 -5.2402955e-02
 -7.9091433e-03
  2.3146018e-03
  1.1719828e-02
  1.2935725e-01
  5.2992028e-01
 -1.5036114e-01
  4.5909517e-02
  1.6973187e-01
  8.8388368e-02
 -6.5422684e-02
  1.2110659e-02
 -5.0934869e-01
  9.1707513e-02
  5.6878454e-03
 -2.5656906e-01
 -1.7428055e-01
  8.9098729e-02
 -3.7260714e-03
 -4.9956301e-01
  1.3707495e-01
  3.2694504e-02
  3.0386260e-01
 -1.8684428e-02
  3.4257266e-01
  4.9306606e-03
 -3.6515504e-01
  2.4910332e-01
  2.3895865e-03
  3.0314134e-02
 -1.4172822e-02
  6.6407531e-02
  1.1626177e-01
 -2.9580640e-02
  1.8448220e-01
  3.6754455e-02
 -2.9906599e-02
 -7.0735696e-03
 -1.2423738e-02
  3.7338059e-02
  3.7796512e-02
 -7.9269176e-03
 -4.0746130e-02
 -3.4063671e-02
 -2.6475058e-05
  4.2251539e-03
 -8.4509775e-03
 -2.3459690e-02
  1.7882008e-02
  2.5896888e-04
 -5.8864793e-03
  3.7232831e-02
 -1.4230908e-03
 -3.2648218e-03
  4.6688497e-02
 -9.0036821e-03
 -1.3389880e-02
 -1.4204899e-02
 -6.3590221e-02
 -7.2269654e-03
 -7.5191748e-03
  5.9972792e-03
 -3.6647841e-02
 -2.5230199e-03
  1.1408249e-02
  6.8562152e-03
  1.9809213e-02
  9.8547782e-04
  3.0385463e-03
 -8.1506819e-03
  1.0474534e-03
  6.3879751e-03
 -2.2029397e-03
 -2.0574841e-03
 -6.2818401e-02
 -2.2423621e-03
  1.3239326e-02
  2.2106130e-02
 -1.6254283e-02
  1.9031852e-02
 -2.1139067e-02
  4.5282513e-02
  1.5734874e-03
 -1.6025219e-02
  3.7391803e-03
 -1.1627333e-02
  4.1862004e-02
  4.4882512e-03
 -1.7484585e-02
 -1.6491961e-03
 -1.9433472e-05
  8.5217590e-03
  5.4035331e-03
 -1.4451982e-02
 -4.7073979e-02
 -1.5037454e-02
  2.1649964e-01
 -1.9030567e-02
  1.4778916e-03
  1.2953584e-02
 -1.1374593e-02
  1.4636340e-03
  3.3133686e-02
  3.0996872e-02
 -2.8841081e-03
 -1.6754249e-02
 -1.1200382e-02
 -1.3344882e-02
 -1.7819872e-04
 -1.0258127e-02
  3.6996370e-03
  7.1481015e-03
  1.8777633e-02
  8.1033904e-05
  9.3704667e-03
  7.7662722e-04
 -5.5550872e-03
 -7.3587531e-03
 -1.8022880e-02
  4.8202899e-04
 -1.1134877e-02
 -1.7065365e-02
 -1.8050203e-02
  2.5010884e-02
  4.1597281e-03
  1.4059651e-02
  2.8282842e-02
  7.8089391e-03
  1.2261686e-02
  3.0836290e-02
 -7.9919444e-03
  1.9735571e-02
  1.1370290e-02
  4.4860765e-03
  7.2491756e-03
  1.8810732e-02
  1.3432940e-02
 -3.4321221e-03
 -1.5825081e-01
 -1.2045837e-01
 -9.2016403e-03
 -8.1334366e-03
  5.0316206e-03
  6.9979122e-03
  1.0037952e-03
 -9.9325310e-03
  3.2604679e-02
 -1.8951882e-02
 -2.8733475e-02
 -1.2979823e-02
 -1.1759249e-02
  2.1927541e-02
  8.7170452e-03
 -6.1116621e-02
  1.6314239e-04
  7.5073373e-03
  1.1154477e-03
 -6.5494934e-03
  6.2407233e-02
 -5.6089537e-04
 -1.5493800e-02
  1.4807803e-02
  3.9636735e-02
 -2.3637028e-02
 -1.6657081e-02
  1.2703764e-02
  2.0935417e-04
  1.1904930e-04
 -1.9379729e-02
 -8.1553571e-03
  2.6344182e-02
 -5.9979857e-04
 -5.3220103e-03
 -2.0915939e-02
 -1.4397618e-02
  1.1165834e-02
 -6.8649255e-02
 -7.1706725e-03
  3.0749354e-03
 -2.0408027e-02
 -5.4021399e-02
  3.3838491e-04
 -4.7200820e-03
  2.7607727e-01
 -8.1542832e-01
  3.0536221e-02
 -2.0392504e-02
  4.6505101e-02
  2.6094973e-01
  3.7345834e-02
  2.7025943e-03
 -5.4541091e-03
  8.7290478e-04
 -6.2962711e-02
  1.5061472e-02
  9.5957972e-02
 -1.3647689e-02
 -1.0743472e-02
  1.1293940e-03
  9.2815749e-02
  4.9462658e-03
 -2.3280777e-02
  4.9796589e-02
 -5.5321401e-01
 -2.6110834e-03
  1.0992835e-02
 -4.9745375e-03
  3.0332470e-02
  1.5915876e-02
  3.3862766e-02
  4.9900003e-03
 -2.2696042e-02
  4.7763407e-02
  3.3678319e-03
  6.0755243e-03
  3.9240308e-03
  4.7731616e-02
 -1.3119894e-02
  2.1383245e-02
 -2.3652113e-03
  8.4397189e-02
  3.9518722e-03
 -5.2331883e-04
 -2.3155704e-02
 -1.8193042e-02
  1.3046543e-03
 -1.1591145e-02
  5.0130538e-03
 -2.0071596e-02
 -1.3393277e-02
  1.4926945e-02
  1.6388034e-02
 -9.6741403e-03
 -1.4180457e-03
  4.1417992e-03
  1.2777028e-02
  1.4428286e-02
  6.3995407e-03
  7.7120881e-03
 -2.4012219e-02
  2.2050569e-02
 -5.2870478e-02
 -1.3508324e-02
 -2.3786660e-02
  3.1449523e-02
 -6.7001274e-03
 -1.2994786e-02
  7.8094141e-03
  1.7970869e-02
  4.6644523e-04
  2.8531700e-03
 -5.1655848e-02
 -3.0010512e+00
  1.4698859e-03
 -4.5197468e-02
 -2.9492743e-02
  1.9120645e-02
 -1.4585454e-02
 -6.6471781e-04
  2.6104497e-03
  2.4405794e-02
  1.7028486e-02
  1.0678780e-02
 -2.5615634e-03
  1.7587312e-02
 -2.7463874e-02
  2.3739953e-03
  4.3302258e-03
 -1.5964733e-02
 -1.0606896e-03
  1.5574673e-02
  6.7276354e-03
  1.0990635e-02
 -4.5781210e-03
 -2.6811573e-03
  7.4132062e-03
 -2.6463639e-02
 -8.3277058e-03
 -1.8878491e-03
  3.5081040e-02
  1.7120743e-02
  7.5536054e-03
  1.8858606e-02
  9.9674938e-03
  2.5626636e-04
  3.4626909e-02
  1.7214447e-02
 -9.5225666e-03
  1.5492844e-02
 -8.1833731e-03
 -4.4696439e-02
  1.0596289e-04
  2.5893820e-02
  2.5002353e-02
 -8.1939641e-03
 -1.1580718e-02
  1.5669208e-02
  2.8883286e-02
  7.6796049e-03
 -8.4917706e-01
 -1.9312188e-02
  2.6000312e-02
  9.3381740e-03
  6.4257784e-03
  4.7059380e-02
 -1.6053617e-02
 -2.2753899e-04
  6.9207323e-01
 -3.4857307e-02
 -1.2619090e-02
 -4.1236434e-04
 -4.0847384e-03
  7.6819914e-03
  1.4034880e-02
  3.6182310e-02
  1.2197729e-02
 -9.3814202e-02
  3.8278803e-02
 -4.1461974e-02
 -4.0989760e-02
  2.7837459e-02
  5.0580624e-04
  1.1036463e-02
 -3.4558460e-02
 -5.6849868e-04
  5.5029313e-03
  1.8443407e-02
  9.9406689e-03
  1.0723229e-03
  1.2827849e-03
 -1.4884180e-02
 -3.2835111e-02
  3.6098447e-02
 -8.7099951e-03
 -2.5211910e-03
  5.8883991e-02
 -9.7338343e-05
 -4.8101684e-03
  8.2738802e-02
 -1.0917170e-02
 -3.2017089e-02
 -1.5909328e-01
 -1.1424910e-03
 -1.8227912e-02
  1.0233290e-02
 -3.3681013e-02
  2.6622633e-02
  6.2299678e-03
  4.0804707e-03
  1.8663815e-01
  1.3588142e-02
  3.6465547e-03
 -3.0469840e-02
 -1.0922409e-03
  7.5140335e-03
  6.2749430e-04
  2.0816745e-02
 -2.0679513e-02
  2.5176348e-03
 -2.8654413e-02
  1.1619879e-01
  2.2522004e-03
 -5.1948051e-03
  7.9384983e-02
 -3.4888759e-02
 -2.0763845e+00
 -8.3263582e-03
  8.6673379e-02
 -9.1212116e-02
 -5.6253034e-03
 -6.8839449e-03
 -1.5299215e-02
 -3.4215927e-02
 -3.6906453e-03
 -3.3429567e-02
  2.0395348e-02
  3.4572698e-02
  1.3973459e-02
 -6.4589395e-03
  1.1122968e-02
 -8.5127823e-02
 -1.0912822e-02
  1.0265962e-01
  2.2992095e-02
  1.8517816e-02
 -2.4467239e-02
  8.1155803e-03
  1.6080329e-02
 -1.3072846e-02
 -2.1892637e-02
 -7.3142964e-03
  1.1777930e-03
 -2.8198419e-02
  3.0399377e-02
  6.4882450e-03
 -4.0479731e-03
  2.8540142e-02
  2.2488530e-03
 -4.0231384e-03
  1.9720498e-02
  1.1909041e-02
  3.4215646e-03
  2.6436996e-02
  3.8818270e-03
  1.1708112e-02
  1.3254622e-03
 -7.7556195e-03
 -1.6742025e-02
  7.7406056e-02
  2.4722549e-05
 -1.3710532e-02
  5.1856991e-03
  3.3756446e-02
 -1.1200295e-01
 -4.7511875e-04
  4.7021646e-02
 -1.8764783e-02
  2.3969302e-02
 -8.0796024e-03
 -3.0135730e-02
  3.6543600e-02
  1.4857031e-02
  1.1522892e-03
  4.0932712e-03
  3.8634341e-02
  7.5364398e-04
 -1.8280200e-03
 -3.0036954e-02
 -9.7355068e-01
  4.3423371e-03
  1.8173119e-02
 -1.0207633e-02
 -3.1333673e-03
  5.6513152e-03
 -2.4115641e-02
 -6.6783573e-03
  1.5855538e-02
 -7.7869869e-03
  2.2724153e-02
 -2.0313712e-03
  5.1252199e-03
  1.9120559e-02
 -1.4643759e-02
  1.3104678e-03
 -1.9546432e-02
  2.0216938e-02
  8.6252661e-03
 -2.2115955e-02
 -1.0869196e-02
  4.9299505e-03
  4.1793324e-02
 -1.1736060e-02
 -1.9475862e-02
 -1.1379268e-04
 -2.0081760e-02
  1.0348745e-02
 -2.5836000e-04
 -2.4820713e-03
 -2.1092065e-02
  3.4828696e-02
 -2.1070259e-02
  2.6208512e-02
  5.3030543e-02
  1.2583870e-02
  2.1288889e-02
 -7.8985374e-03
 -1.2801091e-02
 -1.9374739e-02
  1.3093080e-02
  1.5262839e-02
  9.2400881e-03
  1.6120523e-02
 -1.3206789e-03
 -1.3296498e-02
 -8.2278717e-04
  4.6360061e-02
 -3.2689098e-02
 -6.2211314e-03
  2.0264491e-02
 -5.5829750e-04
 -5.2197911e-02
 -5.3222951e-02
 -3.4329548e-02
  5.3488013e-05
 -2.4690481e-02
  3.4975979e-02
 -8.4981332e-03
 -8.6444160e-03
  2.5461875e-02
 -3.1538814e-01
 -1.7170614e-01
  3.8448048e-01
  1.4809321e-01
 -1.2026137e-02
  2.2436626e-02
 -2.7463894e-02
 -5.7170612e-01
 -1.7638957e-02
 -9.9884681e-03
 -1.5838976e-01
 -1.6958110e-01
  2.4989900e-01
 -6.5091113e-03
 -4.5968568e-01
  8.5732967e-02
 -1.8441495e-02
  2.7586237e-01
 -4.2217504e-04
  2.0341025e-01
  2.3041479e-01
 -2.8997862e-01
  8.2412258e-02
  1.1444696e-03
 -1.7201729e-01
 -1.4626876e-02
  1.7453155e-02
 -2.9930528e-03
 -2.4584824e-02
  1.7863154e-01
 -3.3435517e-03
 -6.5545045e-02
  2.4882631e-02
  1.2218335e-02
  1.0212071e-02
 -4.4470821e-03
  8.9252007e-01
 -9.3364399e-03
 -6.7549343e-03
  7.6629706e-02
 -1.1141114e+00
  8.5693067e-03
  1.3382751e-02
 -6.1947346e-02
 -1.6754253e+00
  1.2645237e-01
  2.6054105e-03
  9.3235327e-03
 -5.1151376e-02
 -1.1394765e-02
 -2.6130632e-02
 -6.8440665e-03
  2.9914950e-03
 -1.7308727e-02
  1.7978892e-02
 -3.9190173e-02
  9.3102716e-03
 -2.0113327e-03
  6.4579514e-03
 -1.8610171e-03
  5.5191167e-02
 -1.6168144e-03
  1.5406356e-02
 -2.1887869e-02
  2.5397608e-02
 -1.1076286e-02
  1.5795612e-03
 -1.8646201e-02
  5.1966593e-02
 -1.4891578e-02
  3.6142131e-03
 -1.5730278e-03
 -1.2970090e-02
 -3.7581776e-03
  2.7634775e-02
  5.3650490e-03
 -2.9810561e-02
 -3.9477807e-02
 -3.5295669e-02
 -3.9756089e-03
  4.1559320e-03
  7.3275496e-03
 -6.6066231e-04
 -2.7317779e-02
 -6.1518364e-03
 -1.1110399e-03
 -9.1634272e-03
 -9.7313032e-02
  9.5072319e-04
  5.6245513e-03
 -3.3180170e-02
  4.7571589e-03
  2.8358594e-02
 -2.8361928e-02
  2.4494799e-04
 -1.0041325e-02
  8.0176340e-03
  1.9997371e-02
 -2.2321891e-02
 -2.6164841e-04
  1.3568826e-02
  6.3925297e-03
 -2.0861015e-02
 -1.7126020e-02
 -3.3072520e-02
 -8.6986534e-03
  2.1740980e-02
 -9.2533976e-03
  2.4310276e-01
  5.7423091e-03
  8.3988803e-03
  1.6552391e-02
  8.3074986e-04
  1.7272640e-02
  6.1072861e-03
  8.4110469e-01
 -6.8924101e-03
  7.2576098e-02
  1.0442859e-02
  1.4293981e-03
  1.1241569e-02
 -1.3549124e-03
 -9.6205538e-03
 -2.0628002e-02
  1.1074129e-02
 -1.9559393e-02
 -3.2688999e-03
 -1.2328518e-03
 -1.9089818e-02
  1.8708124e-03
  3.8412656e-03
  2.1590281e-02
 -5.4689139e-02
  1.8642042e-02
  2.3642272e-02
  3.5850316e-02
  2.5592560e-03
  1.1064761e-02
  2.2177532e-02
 -2.4298782e-02
 -1.8599467e-02
  6.8308511e-03
  6.0267735e-02
 -2.8398763e-03
 -1.8963574e-02
  3.3038545e-02
 -6.0484144e-03
  4.2040750e-02
  2.9092120e-02
  4.8520893e-02
  1.1308248e-02
 -2.9405342e-02
  1.3170785e-01
 -3.2922302e-04
  3.6811754e-02
 -2.0915091e-02
 -7.8665698e-03
  9.4776731e-03
 -2.0521065e-02
  1.5139503e-03
 -1.0069901e-02
 -2.8629335e-02
 -3.1528514e-02
 -2.8537754e-03
 -6.7479812e-02
  9.4630761e-04
  1.5089283e-02
  3.5381906e-02
 -2.6279662e-03
 -6.0532704e-02
  2.8190892e-03
  2.9684242e-03
 -1.3295340e-02
  1.9401438e-04
  8.4545566e-03
  2.6414819e-02
 -3.4919697e-01
 -6.9880545e-01
  7.3339483e-03
  9.1311187e-03
  3.9826367e-02
  1.2738715e-03
  8.8500507e-02
 -4.1572383e-01
  4.0099486e-03
 -2.2660481e-02
 -3.0760262e-02
 -2.0280720e-01
  1.9506520e-01
 -2.2401528e-02
 -2.7976903e-01
  1.1705508e-02
 -5.8141737e-03
  1.1777213e-02
  1.0289841e-02
  1.1423373e-01
 -7.5443811e-03
 -3.9264951e-03
  4.0177099e-02
 -5.2559268e-02
 -7.6295622e-02
  1.7445285e-02
  6.3592091e-02
  2.6833650e-02
  4.3517533e-03
  1.4070688e-01
  1.5403189e-02
 -4.5885812e-03
 -1.4489635e-02
 -5.3546399e-02
  2.7373070e-01
  1.3643426e-02
  5.1895861e-04
  1.5270475e-02
  1.7074339e-02
 -1.0398111e-02
  1.9263646e-02
  4.4164252e-02
  3.0796548e-02
  4.0662582e-03
 -5.2619137e-02
 -4.3037916e-03
 -8.4596984e-03
 -2.2917729e-02
 -1.9588262e-02
 -1.0610587e-02
 -1.0849330e-02
  1.1098677e-03
 -2.3896534e-03
 -6.3395188e-03
  4.8150349e-04
  3.2136494e-03
  4.2188966e-01
  5.7326807e-03
 -1.0061487e-02
  7.3269731e-04
  4.9905412e-02
  7.0038517e-03
  1.3207724e-02
  1.7174492e-02
 -1.0936022e-02
 -8.5246675e-03
  1.8977774e-02
  2.7967701e-02
 -3.9169297e-02
  9.5316224e-02
 -1.9978156e-02
  2.0882755e-03
  5.8427318e-03
 -5.1304169e-02
  4.8489897e-03
 -1.1528443e-02
  1.6521672e-02
 -1.6124142e-02
  2.7327098e-02
  2.3504528e-03
  4.5868121e-03
 -4.1501470e-02
  2.3535082e-02
 -8.0661802e-03
  5.4619476e-02
 -1.3576051e-04
 -2.1231730e-02
 -2.9174566e-02
  1.3885530e-02
  1.9989125e-02
  1.2056916e-02
 -7.6672181e-02
 -6.7889498e-04
 -7.0291022e-03
 -1.0937623e-02
 -2.6387167e-03
  8.9084456e-04
 -5.3650192e-03
 -1.8042134e-02
  1.0847067e-02
  1.4102909e-02
 -2.0201158e-02
  2.5527004e-02
 -2.7383333e-02
 -1.8987174e-03
 -3.5110898e-02
  2.2830723e-02
  8.9582223e-03
 -3.7135158e-03
  4.0751472e-03
 -4.6271639e-04
 -1.5355316e-05
 -4.1944064e-02
  1.3323140e-02
 -2.7375070e-02
 -3.6949508e-02
 -3.9509260e-03
 -5.4202648e-03
  7.7768648e-03
  3.8564164e-02
  1.9066462e-02
 -3.6748424e-03
  2.4621123e-02
  8.8780792e-03
 -9.3930401e-02
  1.8968219e-03
 -1.3741461e-02
 -1.8252099e-03
  1.3034948e-02
 -3.0692453e-02
 -5.5113505e-03
 -3.5351673e-03
  2.9290354e-02
 -1.9388353e-02
  3.4253135e-02
 -1.5532446e-02
 -2.1538609e-03
  1.7120031e-03
 -1.8198278e-03
  4.4872561e-03
  2.8684258e-02
 -1.6801277e-02
 -1.7871119e-02
  1.9700052e-03
  2.4719944e-02
 -3.0572244e-04
  7.0143841e-02
 -7.2332710e-02
 -4.8304498e-02
 -1.3190259e-03
 -8.3467159e-03
  2.1598814e-03
 -3.0348452e-03
 -7.8113070e-03
 -1.4701088e-02
 -2.0570999e-02
 -2.3482386e-02
  2.7202175e-04
 -1.5941063e+00
  2.0391895e-02
 -3.3569913e-02
  7.8118208e-04
  1.2100637e-02
 -9.7495010e-03
 -1.0271798e-02
 -4.4861717e-05
  9.2843901e-03
 -1.1350581e-02
 -5.0251433e-03
  1.9001909e-02
 -1.6102716e-02
  1.0671903e-02
  3.5499248e-03
  2.5747364e-02
  1.6263122e-02
 -3.5016924e-02
  2.7481869e-02
  9.4423199e-04
 -4.0438767e-03
  1.1435019e-02
 -1.1064989e-02
 -8.3515719e-02
  5.0888387e-03
  6.4495891e-02
  3.7860479e-02
 -2.3324078e-01
  3.1498112e-03
 -2.0365834e-02
 -1.7943935e-02
 -5.7750382e-03
  6.4921582e-01
 -1.2942757e-02
 -8.1195362e-02
  1.6169926e-02
 -9.8897526e-03
 -5.1025260e-02
 -2.2279454e-02
 -5.7868343e-03
 -1.5656412e-02
  1.2635077e-02
  2.8341621e-02
 -8.3789579e-04
 -1.5352045e-02
  5.3791134e-03
 -2.5201334e-02
 -2.0094912e-02
 -1.2198135e-02
  4.1162454e-02
  2.3583708e-02
 -9.9750794e-03
  9.0179201e-03
  5.2061725e-02
 -1.1993066e-03
  1.5522749e-02
 -1.2697689e-02
  2.9295601e-03
 -1.6522616e-01
  9.7798544e-04
 -1.7507937e-02
 -1.2402127e-02
  3.0036599e-03
  6.9299160e-04
  4.5440923e-03
  3.8381509e-02
 -3.6217810e-03
  4.1272610e-02
 -6.2245848e-03
 -2.6126413e-03
 -9.3391286e-03
 -7.1735702e-02
  1.4057967e-02
 -6.0396460e-03
  1.3257242e-03
  1.6743580e-02
  2.0846179e-02
 -1.6927738e-02
  7.3736547e-03
 -1.2247728e-02
  2.0034144e-02
 -8.8356771e-03
  6.6028500e-04
 -4.6485835e-03
  1.7584044e-02
 -2.2879506e-02
  2.9637625e-02
  1.5239509e-02
 -5.7512473e-02
  1.6639421e-02
 -2.6328722e-02
  2.6412617e-02
  9.5997490e-03
  3.5744172e-03
 -3.2366700e-02
 -1.8005315e-02
  4.3262197e-03
 -1.2528449e-02
  3.4121503e-03
 -1.8352043e-02
  3.3616106e-04
 -8.9494169e-02
  4.4942990e-02
  1.3423646e-02
 -8.2773826e-04
 -2.4425810e-02
 -2.2985921e-03
  9.5971040e-03
 -2.1990282e-02
 -8.3124258e-02
 -8.0083543e-03
 -1.7632253e-02
 -1.3172427e-02
  1.0084917e-01
  1.1229604e-02
  8.9656524e-02
  2.0761456e-02
  4.6702642e-03
 -1.0722430e-01
 -3.1919766e-02
  6.1757490e-02
  5.2560265e-03
  1.7828852e-02
 -6.1157674e-02
  2.8817737e-03
 -5.3503782e-02
  2.3283886e-03
  3.2870553e-03
 -1.4076098e-02
 -7.1351067e-03
  1.8916763e-02
 -1.4955829e-02
 -2.0411562e-03
 -1.9968204e-02
  5.0869837e+00
 -7.7654392e-02
 -3.7318442e-02
  6.7171000e-02
  1.4212553e-03
  2.1299804e-03
  1.5070647e-03
  5.7862797e-03
  4.7121355e-03
  3.5033565e-02
 -4.4201277e-02
 -4.5579389e-02
 -6.0996995e-04
  1.5775189e-02
  1.3057056e-01
  1.1056013e-01
 -1.7235533e+00
 -5.8559835e-01
  1.3643996e+00
 -8.6036585e-02
 -1.8649163e-02
 -8.7095620e-03
  2.0998271e-02
 -1.6876745e-01
 -1.1506283e-03
 -9.7830661e-02
 -1.1919947e-02
 -6.7898609e-02
  2.6550991e-02
  4.5802835e-02
 -1.2489603e-01
 -2.1457506e-02
 -1.0961320e-03
  2.4454154e-02
  1.3207002e-02
 -2.4210468e-03
  6.2515186e-03
 -1.9861747e-02
  1.9649684e-02
  1.3601755e-02
 -5.8212987e-04
 -5.0953622e-03
  3.9116737e-02
  3.0133739e-02
 -2.3417300e-02
  7.0170164e-02
 -1.6517587e-02
  7.2941747e-03
 -2.3235003e-02
 -1.1056723e-02
 -2.0809563e-02
 -1.7331762e-02
 -4.4337576e-03
  2.0622484e-02
 -9.8429648e-03
 -2.0101512e-02
 -4.0741127e-02
  1.7294336e-04
 -3.7542498e-04
  1.0619963e-03
  3.1882677e-02
  2.6043224e-01
 -6.2637506e-03
  9.6317343e-03
 -6.9412468e-03
  2.2993842e-03
 -6.8640490e-03
 -1.7809667e-02
  8.6277742e-03
  2.7300786e-02
 -1.3243587e-01
  3.5633550e-03
  2.4688703e-03
 -2.5067264e-03
  8.2016431e-02
 -2.2995561e-02
 -8.9844363e-03
 -3.6302447e-02
 -2.9440834e-03
 -5.0479535e-02
 -2.3336008e-03
  2.1758562e-02
  5.5718771e-03
 -7.9604825e-03
  1.0634927e-02
 -9.0034027e-03
  5.5165845e-03
  7.4211948e-02
 -1.5516591e-03
 -1.6835073e-02
  1.9521633e-02
  1.9943442e-02
 -4.4692643e-02
  2.1926062e-03
  1.5475722e-02
 -4.5057540e-03
  9.0094078e-03
 -2.8796948e-02
 -5.5040877e-02
 -2.1988615e-02
 -3.7474424e-04
 -4.6301023e-03
  2.0285975e-02
  1.1529630e+00
  1.6431140e-02
 -5.7156630e-02
  3.0857560e-01
 -5.4960744e-04
  5.0889033e-01
  1.5087104e-03
 -1.5547362e-02
  9.6222378e-02
 -1.8136226e-02
 -9.9562935e-04
  7.5855710e-02
  9.3492582e-02
  1.3287915e-03
 -1.9816742e-03
  2.3610087e-02
 -8.3518932e-03
 -6.4312041e-02
 -7.6108850e-03
  7.4053132e-03
  8.0632176e-03
 -2.9197173e-02
  4.1345772e-03
 -3.6474146e-02
  5.6844144e-03
  2.7812268e-03
  9.0113109e-01
 -6.1717434e-03
 -4.9684558e-02
 -2.1751104e-03
 -1.0472125e-01
 -5.5851205e-04
  3.2057818e-02
 -1.5432416e-02
  2.7484735e-02
 -1.1526564e-02
 -1.0246974e-02
  2.9245293e-02
 -3.7478950e-02
 -4.9476051e-03
 -1.5629310e-02
 -2.4328820e-02
 -4.9960390e-02
  2.7347259e-02
 -5.5827126e-03
 -1.8226126e-01
 -1.0542438e-01
 -1.6115563e-02
 -2.1168914e-02
  4.7072507e-02
 -1.0572335e-02
  2.0249115e-02
 -3.2155448e-01
  5.7890387e-03
 -4.9943034e-02
 -2.1499466e-02
 -2.2663748e-01
  1.4742760e-01
  2.1414597e-02
 -3.4532854e-01
  8.3537016e-10
  3.6163446e-03
  4.7734004e-02
 -5.6755200e-02
  6.6311114e-02
  3.4218810e-02
 -1.7591968e-01
  1.4548720e-01
 -1.4049589e-02
 -1.2618336e-01
  2.4407469e-02
 -6.7624100e-03
  8.8227607e-02
 -3.6461789e-03
  1.9822085e-01
  7.8598307e-03
 -1.2710564e-01
 -1.4465352e-03
 -3.9306927e-02
  1.5169319e-02
  7.8679770e-03
 -3.3304814e-02
  2.7288422e-03
  1.1274539e-03
  9.2849052e-03
  1.4143997e-02
 -2.1754805e-02
 -9.8634977e-03
  1.6416095e-02
  8.6876769e-03
 -3.1780675e-01
 -3.4851250e-03
 -2.7149161e-02
 -2.9601250e-02
  7.7689737e-03
  1.3501449e-02
  1.9862077e-03
 -2.3237986e-03
  1.2458796e-02
  9.2665609e-03
  4.9382221e-04
 -2.4294036e-03
 -8.6375708e-03
 -4.5217603e-02
 -7.4045979e-03
 -9.0568783e-06
 -8.5684843e-03
 -2.0487793e-02
 -8.7315701e-03
 -3.2650777e-03
 -2.2953425e-02
 -2.4311496e-02
 -2.0421570e-02
 -2.6743330e-02
 -3.2846689e-02
 -1.6515118e-03
 -4.7668472e-02
 -7.2285752e-03
  2.7027601e-04
 -3.8841549e-02
  6.0613638e-05
  1.0244285e-02
 -2.8732901e-02
  1.3579786e-03
 -3.1878684e-02
  1.3159286e-02
 -1.2714346e-02
 -3.8948100e-02
  1.3109126e-02
 -7.0866174e-03
  1.4953456e-02
 -1.9661635e-02
 -2.3067114e-03
  2.7632397e-02
  2.4160080e-01
 -3.9217021e-02
 -5.6502991e-03
 -1.9894116e-02
  1.3433487e-02
  1.7695744e-02
  5.2022218e-04
  1.1663016e-02
  1.7028321e-01
  1.3103776e-02
 -7.2090244e-03
  4.7449372e-03
 -1.4842531e-03
 -4.7549331e-03
  1.0071404e-02
 -4.1388585e-03
 -5.5218488e-02
 -2.2467988e-02
 -1.5632709e-02
 -8.5001402e-03
 -2.3817853e-03
  3.5713792e-02
 -5.1225245e-02
 -1.4199352e-02
 -2.3650774e-03
  8.1594018e-03
 -3.6844667e-02
 -5.7155010e-04
 -7.1874185e-04
  7.4907863e-03
 -1.9641643e-02
  5.1177372e-03
  4.2204992e-03
 -3.9372048e-03
 -2.8507840e-03
 -6.5784627e-03
  2.6349613e-02
 -1.2239402e-02
  4.4053985e-04
 -2.5547946e-02
  2.3405747e-03
  1.2310875e-02
  3.8237955e-02
 -9.2557156e-03
 -4.9029738e-02
 -2.0936858e-02
  2.9748837e-02
  5.3929530e-02
 -2.1496278e-03
 -1.6255815e-02
 -2.2320066e-02
  1.1050524e-02
  3.2229140e-02
 -1.2877462e-02
  6.8787709e-03
  1.3162707e-02
 -2.2443432e-02
  3.1193705e-02
  2.4365988e-03
  8.9455089e-03
  2.2453664e-02
  1.3964695e-02
  3.5548918e-02
 -2.0167466e-04
 -1.4935249e-02
  2.3097605e-03
  2.3081824e-04
 -2.0665882e-02
  3.5018411e-02
 -8.7299921e-02
 -2.3517188e-02
 -1.2208740e-02
 -1.2426948e-02
 -2.5916724e-02
  1.6168386e-02
 -6.1194208e-03
 -1.1793968e-02
 -1.1408946e-02
  4.5719193e-03
 -1.9436747e-02
 -1.8614328e-03
  1.5970111e-03
 -5.8665229e-03
  2.7304987e-04
  1.0352793e-02
  5.4615075e-03
  1.8241690e-02
 -6.7292243e-02
  1.8892874e-01
 -1.9752646e-02
  3.6487773e-02
  2.0608906e-02
 -1.0448865e-03
  1.8777678e-02
 -1.4598366e-03
 -1.0619726e-04
 -2.7985899e-03
 -2.8076281e-03
 -1.6340254e-02
  3.0383263e-02
 -1.3478410e-02
  1.5941793e-02
  6.5766849e-02
  1.4228608e-02
  2.5018534e-02
  3.9158715e-03
 -1.2697221e-02
  1.9800775e-02
  2.4406627e-02
  3.3291109e-02
 -4.0436313e-03
 -7.8166135e-02
  2.7166808e-02
 -1.2071597e-02
 -2.2152575e-02
 -1.2079551e-02
  5.2071926e-03
 -4.8016263e-03
 -1.0550518e-03
  9.8830899e-03
  2.9388515e-04
  4.6974625e-02
  2.4357921e-02
  2.5380822e-02
  1.6206754e-02
 -1.9024283e-02
 -3.3747228e-03
 -3.0109794e-03
  1.2293409e-02
  6.6000992e-04
  6.9928996e-02
 -5.1403761e-01
  8.4504258e-04
  5.5796529e-05
  1.4696658e-02
  2.0019403e-03
  1.1837879e-03
 -1.9700060e-02
  1.3045602e-02
 -8.4668826e-03
  2.8632747e-03
 -3.6462761e-02
 -2.7977761e-02
  2.2695003e-02
  1.0611333e-03
  2.6554789e-03
  2.6097002e-02
 -4.7723345e-02
  1.4662679e-02
  1.0747191e-02
 -3.4067438e-03
 -1.8137285e-02
  3.4297682e-02
 -5.7866946e-03
 -4.1494687e-04
 -1.7703915e-02
  6.3929735e-03
  8.1078289e-03
  8.7894313e-03
  9.8465845e-02
  8.2631819e-03
 -6.0358658e-02
  2.7063351e-02
  2.4692012e-02
 -2.9366587e-03
  9.6276682e-03
 -1.1122431e-02
 -9.1702733e-03
 -1.6039499e-03
 -3.0849406e-03
  1.4191267e-02
 -3.8779471e-03
  1.8684996e-02
 -1.8457053e-02
  8.3182659e-03
 -7.1326690e-03
 -3.4940518e-03
  3.1328656e-02
 -1.0358815e-02
  1.2647030e-02
 -1.4474602e-02
 -1.8896569e-02
  1.1368984e-02
  3.9616570e-02
 -1.4977853e-02
  2.6510006e-03
 -3.0845095e-04
  2.0732967e-02
 -1.6939068e-02
 -8.3634295e-03
  1.3918711e-02
 -1.1674882e-02
 -4.9370598e-02
 -1.5464808e-02
 -5.0802249e-02
  2.2972245e-02
  1.1073681e-02
 -1.3571723e-03
  2.6785124e-02
  1.3321181e-02
  1.5519357e-03
  3.7264519e-03
 -4.1887276e-02
  6.7474614e-03
 -1.0636129e-02
  2.2139596e-02
  4.1470427e-02
  1.9053290e-02
  9.1177002e-02
  4.7915271e-03
  2.3160209e-03
 -2.9207557e-02
 -3.0168476e-02
  2.1139362e-03
  1.7210355e-02
 -4.4629868e-02
 -1.0963453e-02
 -8.8396734e-03
 -7.7510714e-03
  2.8809760e-02
 -1.5889870e-02
 -6.7113461e-03
 -1.2407988e-01
  8.3855987e-03
 -7.9306580e-02
 -3.5105463e-02
  4.2463917e-02
 -3.5833392e-02
  1.6947793e-02
  2.0133832e-02
  1.0176734e-02
 -3.9493624e-04
  1.1872695e-02
 -1.6073721e-02
  1.4628351e-02
  6.0108351e-03
 -1.3474836e-02
 -1.9558067e-03
  3.8505552e-04
 -2.1394237e-03
  7.4235834e-02
  1.2253113e-03
 -8.4514618e-03
 -1.5593009e-02
 -1.7353645e-01
  3.2106224e-03
 -1.5120733e-02
  2.3338465e-02
 -1.9801052e-02
  1.1790583e-02
  2.1984095e-02
 -1.0051450e-02
 -1.1658598e-02
 -4.3986145e-02
  5.3570848e-03
 -7.1355063e-03
  4.8774797e-03
 -7.2035054e-03
 -5.6998888e-03
 -6.4899176e-02
 -7.4740103e-03
  1.0276947e-02
 -1.4250554e-03
  2.7788747e-03
  1.5581257e-02
 -6.2181298e-03
  7.6277949e-02
 -2.3947346e-03
  4.4346321e-02
 -3.2035888e-03
  2.6429296e-02
  2.1237113e-02
 -9.5756454e-03
  3.5009482e-03
  1.6676335e-02
  2.0303721e-02
 -6.7598335e-03
  1.4590140e-02
  1.9440772e-02
 -2.0723140e-03
  8.3386209e-03
 -1.0242815e-03
 -7.0309001e-03
  3.4060333e-02
  6.8139005e-03
  4.5590907e-02
  5.0339787e-03
  1.0864981e-02
 -7.0725484e-03
  8.5684033e-03
  4.0162997e-03
  8.2870843e-03
  3.2182201e-03
  2.0617321e-02
 -3.4771953e-02
 -8.8769640e-04
  1.7627317e-02
  1.7089385e-03
  8.9471871e-03
  7.9854364e-03
 -1.7958347e-03
 -9.3771768e-04
  5.9463303e-03
 -1.8219173e-02
 -6.7141722e-04
  1.6891802e-02
  2.8504003e-03
 -3.6984295e-01
 -7.4787308e-03
  1.6971041e-01
  1.4860545e-01
 -1.0709188e-01
 -1.1236542e-02
  1.9450963e-02
 -2.2216347e-01
 -2.0346101e-03
  2.8046476e-02
 -1.7628724e-02
 -1.6986230e-01
  9.1061890e-02
  1.8405901e-02
 -1.2649429e-01
  2.1445034e-02
 -4.7259643e-03
  7.1152017e-02
 -1.8202752e-03
 -6.4694788e-04
  1.2490828e-02
 -3.5307940e-02
  5.8398557e-01
  4.8996382e-03
 -1.3122802e-02
  8.7903598e-03
 -1.1907673e-02
 -3.5377488e-01
 -1.5704973e-02
  1.4922711e-01
  1.1161250e-02
 -1.6243121e-01
 -7.0341136e-03
 -2.1965345e-02
  7.5290813e-03
  3.4034275e-02
 -4.5301668e-02
  7.3795663e-03
 -3.9966027e-03
  4.0163677e-03
  2.2744676e-03
  1.7540991e-02
 -2.4926236e-02
  8.4633483e-03
 -1.3354379e-03
  2.9170163e-02
 -1.4777968e-03
  4.9714907e-03
  1.8668515e-03
  1.1103333e-02
 -2.7513305e-02
 -1.3177507e-02
 -9.5290476e-03
 -4.3710233e-03
  1.2753385e-03
  2.2157311e-02
 -2.5017955e-03
  7.6985680e-03
 -1.0981735e-02
 -9.6687619e-03
 -1.5337546e+00
 -1.5936101e-02
  2.0235810e-02
  1.2316739e-02
 -1.5688816e-02
 -2.5899903e-04
  2.1460567e-02
  5.5308854e-03
  3.8076289e-02
  2.2392130e-02
  9.2544490e-03
  1.6555978e-02
  9.4408197e-03
  1.3082010e-02
 -3.1460028e-02
  2.3396973e-02
 -1.1080720e-02
 -3.4304436e-02
  5.9462860e-03
 -3.8254432e-02
 -6.4412863e-03
  2.8212840e-02
 -2.8685229e-02
 -2.0301886e-02
  5.8844168e-02
  3.8104720e-02
 -4.9830363e-03
 -1.5000267e-02
  2.8000047e-02
  1.3201690e-01
  1.1507854e-02
  2.0201290e-02
  1.9919800e-02
  2.3319880e-03
 -1.1217984e-02
  1.6262291e-02
  2.2946972e-02
 -1.9515913e-02
 -6.2927273e-03
  2.0241032e-03
 -1.9549351e-02
  8.6163124e-03
  9.8813875e-03
  1.5677216e-02
  1.3653854e-02
  4.4830766e-02
 -5.1720818e-03
 -3.0858952e-03
  5.1341996e-02
  1.4263499e-02
 -1.1639756e-02
  2.7509896e-02
  1.7450340e-02
 -3.8546778e-02
  2.3050653e-02
 -5.4156203e-03
 -2.9722512e-02
 -2.7065748e-02
  6.8113312e-02
  1.3790436e-03
 -2.3600508e-02
 -1.4235985e-02
 -5.5793170e-02
  1.4458289e-02
  7.9317186e-03
  3.5161991e-04
 -5.1007555e-03
 -2.8211933e-02
 -1.1836568e-02
  1.2599528e-02
 -3.9668847e-02
 -2.8352631e-02
  1.3964558e-02
 -4.1221473e-02
  9.2739547e-03
  4.3382004e-02
  3.9804308e-03
 -7.2015878e-03
 -1.1390799e-03
 -5.6996285e-03
  2.6631460e-02
 -8.4397439e-03
  5.6296895e-04
  1.3355354e-02
 -2.1565560e-02
  7.9728859e-03
 -2.5333224e-02
 -3.1946931e-02
 -1.6229076e-02
 -4.2735334e-03
 -1.8492948e-03
 -2.0382412e-02
  1.4203070e-02
  1.1121573e-02
 -2.2586076e-02
 -3.2154473e-03
  8.5343169e-03
 -1.5445719e-02
  1.6972974e-02
 -4.0613372e-02
 -3.3510965e-04
 -2.0492513e-02
 -2.2840384e-02
 -9.8103750e-03
  5.6763389e-03
 -2.1364377e-03
 -4.6038618e-03
  5.7129101e-03
 -6.0965051e-03
 -5.0609619e-03
  1.2949529e-02
 -4.0713172e-02
 -6.5598090e-04
  4.8993425e-03
 -1.9417398e-03
  6.0421843e-02
  2.7853255e-03
 -3.1667948e-02
  1.2299570e-02
 -7.3070573e-03
 -1.9566540e-02
  8.9303646e-03
 -7.2096605e-03
  1.4621885e-02
  8.9070492e-04
  1.9710608e-02
 -2.2923145e-02
  3.8724300e-02
  8.9033181e-03
  8.1767151e-03
 -5.9269713e-03
 -4.9621989e-03
 -5.8304556e-03
 -2.6345767e-02
  4.5405425e-02
  4.1403351e-03
  2.1148296e-02
 -9.5463349e-03
  5.2925879e-03
 -1.1499226e-02
  6.4703105e-03
  3.2929429e-01
 -4.6414286e-03
  3.0710921e-03
 -1.2531338e-02
 -7.2716195e-03
  2.0423941e-02
  1.5620220e-02
  6.9973930e-03
 -7.7272602e-03
  1.1210386e-02
  2.4162833e-02
 -1.0846837e-02
 -4.8512858e-03
  8.3659744e-01
  8.8115822e-04
  2.8773865e-03
 -1.6394870e-02
  5.4103509e-02
 -3.1395491e-02
  1.1453710e-02
 -5.6624621e-02
 -6.2541656e-02
 -2.0643829e-03
 -4.3301214e-03
  4.5801412e-02
 -6.5595820e-03
 -2.9750861e-02
  3.3631277e-01
 -1.0661262e-02
  2.9060816e-02
 -3.5515469e-02
 -1.1265380e-02
 -1.8895902e-02
 -9.0666004e-03
  3.2873806e-02
  3.3538941e-02
 -8.0699846e-03
 -4.7987686e-03
 -2.3434011e-03
 -3.6241848e-03
 -3.7445292e-02
 -1.1022342e-02
 -6.2397262e-03
 -3.0320594e-03
 -1.4155564e-02
 -2.9443242e-02
 -2.1452507e-02
 -1.0549739e-02
 -6.4662640e-04
  1.1884321e-02
 -2.9475152e-02
 -9.4508409e-04
 -3.1471174e-02
  5.9206527e-02
  1.5635235e-02
 -2.0682285e-02
 -2.7944993e-02
  2.3535674e-02
  2.6734738e-02
  1.2231384e-02
  1.6455464e-03
  1.4671062e-01
  2.5395647e-02
 -4.7967923e-03
 -1.4832058e-02
  6.8053161e-03
  3.3973582e-02
  1.2590295e-02
 -4.8936638e-03
 -1.3618634e-02
  1.5945600e-02
  1.1373024e-02
  2.5721155e-03
 -9.9524977e-03
 -6.8318687e-02
 -1.9685850e-02
  1.2299054e-02
 -2.1771731e-02
  1.8976729e-03
  2.2056928e-02
  5.0545152e-02
 -7.2493441e-03
  4.9573216e-03
 -9.4761103e-03
 -1.2161158e-02
 -3.2174584e-02
 -1.0920167e-02
  2.6534403e-02
  3.8727811e-03
  4.9276680e-02
  1.2754217e-02
 -9.2219422e-03
 -4.4496725e-03
  7.6423311e-03
  8.7238830e-03
 -1.1612446e-01
 -1.5098810e-03
  2.1992095e-02
 -4.2468883e-02
  2.5798937e-03
 -4.7032489e-03
 -3.0618578e-02
 -4.0704897e-03
 -4.2430987e-03
  5.4520145e-03
  1.5160589e-02
 -1.1505727e-02
  2.4250984e-02
  3.4584021e-03
  2.7299998e-04
  1.7383037e-02
 -9.1197630e-03
  9.2019106e-04
  1.1036257e-02
  4.2500291e-02
  3.4855690e-02
 -1.0342237e-02
  1.0438254e-02
  1.9044392e-03
 -3.4493383e-05
  1.0771888e-02
  1.9373028e-03
 -5.9060189e-03
 -5.1076315e-02
 -1.7299479e-02
  1.5239889e-02
 -4.4785436e-02
  4.8956671e-03
 -1.1713510e-02
  3.5469666e-02
 -3.2920454e-02
 -4.6751194e-02
  3.1072968e-03
  1.0268093e-02
  2.3506129e-02
  4.5169860e-02
  2.1909617e-02
 -1.7616080e-02
 -2.4363676e-02
  1.4642125e-02
 -1.2521287e-02
 -1.2944258e-02
 -3.2874428e-02
 -1.7064271e-02
 -1.6685151e-02
  1.3928930e-02
  1.5518459e-02
 -7.5867795e-03
  5.2823792e-03
 -1.0270893e-02
 -6.9085439e-03
  5.0096303e-02
  1.0573200e-02
  3.6674885e-03
  3.1602236e-03
  2.8544610e-02
 -4.2442944e-02
 -4.1729402e-02
  1.1534961e-02
  3.2657418e-02
  1.5610826e-02
  1.4375290e-02
  9.5399106e-03
  7.4589881e-03
 -2.5052503e-02
 -4.5576897e-02
 -2.5214869e-01
  6.0805664e-03
 -9.5549906e-03
 -6.8385884e-02
  1.8228784e-02
  7.0282645e-03
  2.0429105e-02
  6.1515281e-03
  2.6543044e-02
 -1.8526233e+00
 -2.3246594e-02
  2.2869348e-03
 -1.8247057e-02
 -2.9876439e-02
  3.7891094e-02
 -5.0681601e-03
 -9.3289241e-03
  1.8239548e-02
 -1.0380469e-01
 -1.7124611e-03
 -4.3332216e-04
 -1.7217213e-02
 -1.1055944e-02
  3.3496146e-03
 -7.0797545e-03
 -7.1497955e-03
 -6.3316631e-03
 -3.9576694e-02
 -1.4722509e-02
 -6.0417070e-03
 -2.1553421e-02
  1.8447768e-02
  5.5907685e-03
 -7.9602649e-04
 -6.6862279e-01
 -4.8516154e-02
 -4.0057213e-03
 -1.1356897e-02
  1.4535005e-01
 -1.6148651e-01
  1.2454265e-02
 -2.8120179e-02
 -1.0912274e-02
  3.9118994e-02
  1.3019098e-02
 -1.2639181e-01
  2.6588225e-01
  5.7101389e-03
  3.5153225e-02
  4.5741452e-03
  1.7052904e-03
 -1.0694897e-02
 -6.3915439e-03
 -2.9528009e-02
  7.0394345e-02
  4.9416799e-02
  5.8809941e-04
  1.0564567e-03
 -3.7900675e-03
  1.3349130e-02
  3.3282068e-02
 -1.5989188e-03
 -1.8515617e-02
  9.0737063e-03
 -3.7617362e-03
 -1.9831078e-03
 -1.6618046e-03
  9.5961327e-03
  4.2272341e-02
 -1.4286999e-02
  2.8425392e-02
 -1.6313514e-02
 -4.2427045e-01
 -3.4553010e-02
 -1.8248398e-02
  2.0643923e-02
  8.2245785e-01
  1.2736550e-02
 -1.6379754e-01
  1.0834584e-01
  5.0096530e-03
 -3.2630554e-01
 -3.4749951e-02
  1.2220786e-01
 -1.0787550e+00
  3.7942901e-02
 -5.7035074e-02
 -5.6161039e-02
  4.4101954e-01
  1.1681972e-01
 -5.1083311e-02
  3.2880120e-02
 -3.9298858e-02
  3.4129557e-01
 -6.8593095e-03
 -1.0791276e+00
 -1.4352006e-01
 -1.2876053e-01
 -1.2583399e-01
 -7.5337791e-01
 -6.6406749e-02
  4.1457806e-02
  1.2003349e-01
  2.5602210e-01
  1.5865125e-02
  8.0396152e-01
 -6.9052613e-01
  8.7933630e-02
  1.7756876e-01
 -7.5838143e-01
 -1.5678626e-02
  9.8270224e-03
  1.2222123e-02
 -1.7255047e-01
 -6.0975648e-02
  5.1982146e-02
 -1.0178372e-02
 -7.8748269e-03
 -6.2088084e-01
 -1.9778064e-02
 -8.1475014e-03
  2.6023412e-02
  1.6759645e-02
 -6.5139867e-02
  7.4482094e-03
 -9.4133513e-03
 -1.0697671e-02
  4.1338075e-03
  5.0123216e-04
 -8.4357984e-02
 -1.3736875e-02
  1.8942084e-02
  3.3874778e-04
  8.9241117e-03
 -4.7765318e-02
  2.1284430e-03
  2.9575397e-04
 -4.1618682e-02
  1.2277022e-02
 -3.4537088e-02
  7.1967007e-03
  1.9133175e-02
  1.0866874e-02
  4.8552960e-02
  3.3672146e-02
 -1.5286959e-02
 -2.9188859e-01
  9.0941684e-03
 -9.7114121e-04
 -3.9929254e-03
  4.2019859e-03
 -2.0950766e-02
 -2.7421322e-02
  2.4030125e-02
  1.1453003e-02
 -2.4589628e-03
  4.4224147e-02
 -1.6333137e-02
 -1.1553057e-02
  5.6151142e-03
  1.3575226e-02
 -4.7328198e-04
 -4.5712017e-02
 -1.8276682e-03
  2.1025231e-02
  1.9470494e-02
 -2.6449980e-03
  3.4710679e-03
 -6.7467494e-03
 -5.9813119e-02
  1.0935701e-02
  4.4924051e-01
  7.3054649e-02
 -3.9966285e-01
  3.1141344e-01
 -7.7923462e-02
  1.8810642e-01
  9.9727702e-01
 -1.3592555e-01
  1.3862160e+00
 -7.0717555e-01
  1.2013320e-01
 -1.1014329e-02
 -9.4470453e-01
  9.6941717e-02
  7.8957152e-01
  2.8047228e-01
 -4.0030086e-01
 -3.1041270e-02
 -8.2151300e-01
  6.6102077e-03
 -6.9021058e-01
 -1.8656494e-01
 -1.7517497e-01
 -1.0887173e+00
  5.5307108e-03
 -1.6338267e+00
 -5.9048343e-02
 -1.4270496e+00
  1.8676300e+00
  2.6209873e-01
 -1.0366033e+00
 -5.2642167e-01
 -6.2860054e-01
  1.3009194e-01
 -6.1354721e-01
  2.2485585e+00
 -5.8697891e-01
 -2.4239846e-02
  1.3778859e-03
 -2.5009209e-02
 -1.0654693e-01
 -7.3206290e-03
 -2.2154257e-02
 -1.7733818e-01
 -1.2133211e+00
 -5.7175059e-02
 -4.1955271e-01
 -8.5724935e-02
  2.1519226e-01
 -7.2195500e-02
  8.2361050e-02
 -8.5007161e-02
 -3.9577919e-01
 -3.2783721e-02
  8.8212974e-02
  1.0434642e-01
 -1.1095599e-01
 -8.9790381e-02
  5.5412000e-01
 -9.9605098e-02
  3.6443514e-03
  2.5137823e-02
 -2.7015674e-01
 -2.2266193e-01
 -2.0395412e-01
 -3.1892411e-02
 -4.8846552e-01
  2.3189254e-02
  1.1764122e-02
 -4.9350526e-02
 -1.1974610e-01
  3.4050725e-02
  2.4368708e-01
  3.8301696e-03
 -5.1134900e-04
  5.0114129e-02
  2.1883557e-02
 -2.7746412e-01
 -4.5486547e-02
 -2.0101197e-02
 -3.1152235e-02
  8.8434115e-02
 -8.3266501e-04
  6.2597118e-02
 -4.2144097e-02
  5.6859627e-03
  9.9548430e-04
  1.4767471e-02
 -1.8311724e-02
 -5.0553144e-04
  2.5109550e-01
  6.4476910e-03
  6.4429920e-03
  6.3387550e-02
 -5.7860605e-02
  3.9437283e-02
 -3.3193359e-01
 -1.1884069e-02
  1.6243595e-01
 -2.4817999e-02
  4.1912255e-01
  1.8490076e-02
  9.5318332e-02
  5.2130923e-02
  4.1863162e-02
  4.4058103e-04
  2.5813989e-02
 -2.1841542e-03
  8.3903950e-03
  5.2160457e-02
  8.7239984e-03
  9.8410891e-03
  1.6822895e-02
  6.5038627e-01
  2.0433377e-02
 -1.2483112e-02
  3.8154032e-02
 -3.7643734e-02
  2.0487528e-01
 -2.1050590e-04
 -2.2323297e-02
 -6.2593305e-03
 -2.2182909e-01
 -1.1765460e-01
  1.3723078e-02
  2.3165429e-02
  8.2795927e-03
 -1.1754517e-02
 -1.0519734e-02
 -4.0444052e-03
  1.7720094e-02
 -8.6493174e-06
 -2.7166822e-03
  1.2613611e-02
  3.5661359e-03
  1.0711439e-02
  8.6883409e-03
 -2.0513458e-02
  8.1721816e-04
  3.6197908e-02
 -4.9372192e-02
 -1.0547186e-02
 -4.1640871e-03
 -3.0827732e-03
  2.3707194e-02
  8.4904250e-06
  2.7164331e-02
  2.8131558e-06
  4.3500658e-02
  2.1668230e-03
 -2.3409136e-02
 -2.3280908e-04
  4.2550523e-02
  9.3817851e-03
 -2.6061559e-02
 -2.2884725e-02
  2.3500310e-02
 -5.9249322e-03
 -1.1736865e-02
  9.8568462e-03
 -1.2986227e-03
  6.8924524e-02
 -1.1477748e-02
  1.3294746e-03
  4.0310334e-02
  1.4683728e-02
 -2.0317474e-02
  1.1084576e-02
  4.0268153e-03
  2.5871923e-02
  2.0559800e-03
 -1.3045477e-03
 -4.7868025e-03
  2.6624607e-02
  9.6417926e-03
  2.0573642e-03
 -5.9948403e-02
 -8.9141242e-03
 -4.5726340e-02
  1.2996808e-02
  7.3637213e-03
  9.0506142e-03
  4.7362000e-03
 -4.8455107e-04
 -4.9077775e-02
  1.7735831e-03
 -4.8133090e-02
 -2.0145590e-03
  1.5203961e-02
  2.1531798e-02
 -1.3399286e-03
  9.1395332e-03
  3.8656916e-02
  3.7309624e-02
 -6.2259715e-03
 -5.1584866e-02
 -4.8445247e-02
  1.7001610e-02
 -1.6185131e-02
  3.1603435e-03
 -1.0340954e-02
 -5.0907652e-03
 -2.2187889e-02
 -2.3964075e-02
  1.0295359e-02
  7.7393767e-03
 -2.8656896e-03
 -2.1781207e-03
  1.9652681e-02
  3.9125341e-03
  4.1333836e-02
  4.3828050e-03
 -3.0524668e-03
 -3.6573205e-03
  8.1887925e-03
 -1.7383407e-04
 -1.7246995e-02
 -7.8148777e-03
 -2.0732163e-02
  1.6344352e-02
  5.1251554e-01
 -1.0223256e-02
  7.0375711e-02
  3.5563510e-02
  1.2874764e-02
 -1.4527890e-02
  7.6585275e-01
 -3.8442552e-02
  4.5319933e-02
 -2.2280577e-01
 -2.8760090e-02
 -4.8803617e-03
  2.2176079e-02
  1.1495539e-02
  9.9693440e-02
 -3.4683239e-02
  6.0738651e-03
  2.3590457e-02
 -9.8700710e-03
 -1.5077716e-03
 -6.5704830e-02
 -7.6246471e-03
  1.5352178e-02
  9.6635595e-03
  4.8882407e-03
 -3.9508957e-03
 -1.1455751e-02
  1.5860770e-03
  1.9590061e-02
 -6.8438560e-02
  1.1482722e-02
  2.7708950e-02
  3.5190012e-03
  1.7015401e-02
 -4.7831174e-02
  1.3839256e-02
  9.1423150e-03
 -3.5233911e-02
  1.2842102e-01
  7.3983050e-03
  5.0531095e-03
 -3.4297495e-03
  2.9013371e-02
 -8.8173561e-03
  3.0335769e-01
 -4.4554356e-01
 -9.0930855e-01
  2.0285936e-01
 -1.9825548e-01
  9.2138797e-02
 -9.7323939e-02
  1.7326817e-01
 -2.5777385e-01
 -9.0678573e-01
 -7.6395899e-02
 -1.1780275e+00
  2.3657620e-01
  7.5924344e-02
  4.2904103e-01
 -1.9877548e-03
  1.3533367e-01
  2.2244127e-01
 -2.3339929e-01
 -5.5153954e-01
  6.4689673e-02
  4.0141094e-01
  1.1349448e-02
 -4.1784152e-01
 -1.6872990e-01
  7.2183371e-01
 -5.0239134e-01
  5.2679360e-01
  1.4402332e+00
 -3.5377793e-02
 -6.2766743e-01
 -2.9039750e-01
  3.3508509e-01
 -2.5112510e-01
  1.0427197e+00
  3.1252366e-01
 -4.0432882e-01
 -2.1111334e-03
 -1.8023126e-02
 -3.3538587e-02
  5.2096983e-03
 -8.8683041e-03
 -1.2145974e-02
 -5.0475903e-02
 -4.0367761e+00
 -7.8445747e-02
  1.6204035e-02
  2.0654533e-02
  2.1319881e-03
  8.3603948e-02
  9.0173855e-03
 -1.6533339e-02
 -1.5240230e-03
  1.8846190e-02
  2.0087058e-02
 -1.0210732e-02
 -2.1589275e-03
 -5.4572858e-03
  1.3499971e-02
  3.1041531e-02
 -1.0765272e-02
 -4.2495452e-02
 -1.5437313e-02
 -1.6055861e-02
  5.6853322e-03
  3.3711977e-02
 -5.2299849e-03
  1.6194422e-02
  7.2520686e-04
  1.4995932e-02
 -4.3639783e-02
  1.6484635e-02
  1.0405902e-02
 -1.4610625e-02
  2.9290827e-02
  2.1741558e-02
  6.8555780e-02
  6.5849116e-03
  4.1284934e-02
 -4.4025719e-02
 -2.5613701e-02
 -2.0644288e-03
  4.3150969e-03
 -5.0988975e-03
  6.2799635e-03
  1.1107088e-03
  5.4548359e-03
  3.2903289e-03
 -3.0713325e-04
 -2.3947306e-02
 -9.5641539e-03
 -2.0907219e-02
  6.4395806e-03
 -2.9659139e-03
  1.1369265e-02
  3.9827824e-02
  4.9500965e-02
 -1.6397336e-03
 -1.2328029e-02
  1.8930238e-03
 -3.1427306e-03
  6.9719246e-03
 -1.6361535e-02
 -1.1452633e-02
  3.1149970e-02
  3.3900049e-03
  4.0683337e-02
 -3.4340490e-03
  1.6160637e-02
  8.4943501e-03
  1.7236976e-02
 -9.2744594e-03
  1.1490290e-02
  1.4196012e-02
 -2.0241546e-02
  4.3486413e-02
 -7.9195546e-03
 -3.0207105e-02
  5.3187124e-03
 -4.2495176e-02
 -7.8819739e-03
  2.3171611e-04
 -3.8497847e-02
  1.1902074e-02
 -1.3773250e-04
  1.4917374e-02
  2.9126897e-01
  2.3895627e-02
 -1.5999002e-02
  1.1211544e-02
 -7.5149611e-02
  1.0876458e-02
  7.9058548e-03
 -3.6544455e-03
  8.1074098e-03
 -9.8434547e-03
 -8.0903462e-04
  2.1337058e-02
 -4.7365874e-02
  6.5911788e-01
  1.2020940e-02
 -1.3802583e-02
  3.6226620e-03
 -2.1219039e-03
  3.1717766e-02
  7.3582320e-03
  8.2881330e-04
 -1.3097313e-02
 -2.6177436e-03
 -1.4537175e-02
 -4.0530396e-04
 -5.2032549e-02
  1.0526593e-02
 -4.1973229e-02
 -3.9693224e-03
 -1.1321542e-02
 -6.1087213e-03
  4.8253045e-04
 -1.1790846e-02
  7.1634981e-04
  1.3181414e-02
  7.1798847e-03
 -3.5762575e-02
 -2.5410477e-02
  9.6968235e-03
 -1.0294398e-02
 -3.8022149e-02
  6.1767977e-03
  4.7333280e-04
 -1.0699023e-02
 -4.9555986e-03
  4.6245117e-02
 -1.2399889e-02
 -4.7982819e-03
  1.8419581e-02
  2.3653518e-02
 -4.4343911e-02
 -8.0952600e-02
  4.0496551e-02
  1.3228275e-02
  8.3853625e-02
 -1.7325567e-02
 -3.3253965e-01
 -1.8748881e-02
  5.0599789e-03
  1.8176025e-03
  3.8802069e-02
 -2.5971439e-03
  2.1092805e-01
  8.5128033e-01
 -1.8187637e-02
 -3.6000673e-02
 -8.2021543e-06
 -1.4094582e-02
  3.4603579e-03
  1.8399205e-02
 -2.7913826e-02
  4.9260430e-02
  1.0842199e-02
 -3.9058313e-02
 -1.6931994e-04
 -2.5945272e-02
 -3.4087843e-03
  2.3585081e-02
 -2.2777422e-04
 -2.1124410e-02
 -2.1018391e-02
  3.9601903e-02
 -2.9674571e-02
 -9.3230763e-03
 -1.7991617e-02
 -1.4254246e-03
  1.5244286e-02
  3.0058600e-02
 -2.1075586e-02
  6.0198986e-04
  3.2519023e-03
  3.1891216e-03
 -3.2188043e-02
 -1.6057147e-02
 -2.3673716e-01
  1.5539154e-01
 -2.6768491e-02
 -5.8147940e-03
 -2.2722518e-01
  5.2163340e-03
  1.7927158e-01
 -3.9279035e-01
  4.3965489e-01
  2.7615631e-02
  2.3087841e-02
  1.0501639e-02
 -1.1549042e-01
 -9.9818446e-02
 -6.0726076e-02
  7.7763898e-03
  1.1299552e-02
  2.7277768e-02
 -4.4411868e-01
  4.9176112e-02
 -2.2348535e-01
 -1.5536720e-01
 -2.9910791e-01
 -1.7504287e-01
 -3.1390578e-02
 -1.3803410e-02
 -4.6145194e-04
 -3.7173778e-02
 -5.5554070e-02
  2.0356241e-01
  3.1468531e-05
  1.5003190e-03
  5.4322374e-03
 -8.6250296e-03
 -4.3568920e-02
  1.1835602e-01
 -2.1137820e-01
  1.2603085e-02
 -3.5833518e-03
  7.5821117e-02
  3.0135108e-02
  2.8190807e-02
 -3.9869785e-02
 -6.7983016e-02
  1.7613322e-02
 -4.4962628e-05
 -1.7751919e-03
 -1.3087314e-04
 -9.7259404e-03
 -7.5887807e-04
 -3.1772405e-02
 -3.0334000e-02
 -1.2877046e-02
  1.1981816e-02
 -6.6030771e-03
  2.4725972e-02
  2.2890824e-03
 -1.3033594e-01
 -1.8872753e-02
  4.1913383e-02
  8.5932212e-03
 -1.1104742e-02
 -1.5469555e-02
 -1.2558572e-02
 -1.0014026e-02
 -1.7721201e-01
 -1.5404645e-02
  6.3267678e-02
 -2.9170558e-02
 -1.7455585e-03
 -1.8701209e-02
  1.1088855e-03
  7.6856348e-03
 -3.6883891e-02
 -1.6901633e-02
  1.1293641e-02
 -2.0800453e-02
 -2.5617322e-02
 -8.0319159e-03
  3.8131559e-03
  5.7835411e-02
  4.6549840e-03
 -3.6136188e-02
 -1.8979546e-02
 -1.4868030e-02
  8.6139548e-01
  3.0710120e-03
  6.1392367e-02
 -4.9225521e-01
 -2.1752559e-02
  6.0671929e-02
  3.6807563e-02
  4.6153083e-03
 -2.7991360e-01
 -5.1978469e-01
  1.6474739e-01
  2.1057357e-01
 -1.2920043e+00
  1.3867569e-02
  3.1428579e-02
  9.2709547e-01
 -2.9383573e-01
 -3.2819940e-03
 -1.4059774e-03
  3.4306601e-03
 -1.3991335e-03
  5.3826861e-02
 -6.4097390e-02
 -6.2543228e-03
 -5.4529584e-03
 -2.8229982e-03
  5.6990646e-03
 -2.2619221e-02
  2.3630181e-02
  2.7778527e-02
 -7.3864344e-03
 -6.7303443e-01
 -3.7514180e-02
  2.1189773e-02
  3.0178439e-02
  1.6878238e-02
  2.9622575e-02
 -9.3041621e-03
  1.5787272e+00
  1.1624352e-02
  2.8576176e-03
  5.1087653e-03
 -6.1296176e-02
 -5.8913883e-03
 -1.4136817e-02
 -1.1784561e-02
  4.7474939e-02
 -6.3943332e-01
 -9.5731294e-01
  1.6443908e-01
  2.1974087e-01
  1.1094081e+00
 -3.0737454e-01
 -1.2961022e+00
  1.2496572e+00
  4.3028530e-01
  5.0088865e-01
  2.9924762e-02
  1.0721461e-01
  2.1889102e-01
 -7.9585582e-02
 -2.0213808e-01
 -5.6955904e-01
 -1.5607083e-01
 -4.5561723e-02
  4.9629530e-01
 -2.7157726e-02
 -4.4977021e-01
 -7.0489824e-01
  1.8837472e+00
  2.8069443e-01
  6.7782456e-01
 -1.1329449e+00
  5.9152329e-01
 -2.2284565e+00
 -9.5805556e-01
 -2.5078914e-01
  3.4647617e-02
  1.6118189e-02
 -1.1887497e-01
 -5.0095522e-01
  1.9683373e-01
  6.7947008e-02
  7.6325394e-02
  1.5904373e-02
  1.0702170e-03
 -6.9809020e-02
  7.6808318e-02
  5.4595871e-03
 -1.2719250e-01
  1.4695142e-01
  6.1887777e-01
 -2.2706763e-01
  2.2505263e-02
  2.7772768e-03
  3.9352676e-01
 -2.1474025e-01
  1.1180770e+00
 -2.0913268e-02
  4.4808310e-01
 -3.4017584e-01
  7.0158526e-02
 -1.2277122e+00
  3.7182052e-02
 -3.5626641e-01
  7.0609793e-02
 -3.4380412e-01
  4.6477942e-03
  5.6739911e-02
  2.5132112e-02
  2.3948574e-02
  2.3073493e-02
 -9.1074677e-03
  1.7848922e-03
 -1.0597583e-02
 -6.5881792e-03
  1.4832426e+00
 -1.7845627e-02
 -1.4701678e-02
  9.4381016e-01
  3.6928093e-01
 -6.9483509e-03
 -1.7051075e-03
  2.8485883e-02
  1.8103845e-02
  9.4007524e-03
  1.5234808e-03
  1.6446251e-02
  5.9786406e-03
  1.5192179e-03
 -1.4158332e-02
  2.8837616e-02
 -1.2734149e-02
 -1.1683306e-02
 -6.2773924e-04
 -1.0698938e+00
 -1.5458548e+00
  1.1351662e-02
 -4.3832225e-01
  5.0477892e-01
 -8.0049413e-01
 -1.0014033e+00
  1.8942927e+00
  5.3054917e-01
  1.5020031e-02
  9.0251014e-02
  3.4255308e-01
  1.3802966e-01
 -1.7387210e-01
 -1.2230080e+00
  6.8996221e-02
 -6.6955864e-01
 -7.3046696e-01
 -7.8408551e-01
  6.0992593e-01
 -7.8047395e-01
 -5.6225371e-01
  5.5676408e-02
 -1.3721136e+00
  1.7889416e+00
 -1.6446056e+00
  1.6157469e+00
 -9.8200852e-01
 -1.7662762e+00
  2.1150243e-01
 -2.1555412e+00
  5.9265357e-01
 -1.4320725e+00
  2.2284074e+00
 -3.5136316e+00
 -2.8282149e+00
  1.1028498e+00
  1.8006856e-02
  1.7244567e-01
 -2.7090417e-02
  1.1862527e-01
  2.7102682e-01
  8.3858691e-02
  3.9768907e-01
 -1.7812470e-01
 -3.8828086e-02
  3.7776690e-02
  5.4574743e-02
  6.5863277e-03
  3.6727462e-02
 -9.0099111e-02
 -1.1412952e-01
 -3.5383385e-02
  6.1661396e-03
 -2.5704294e-03
 -3.7640963e-02
 -5.9369099e-03
  1.4311888e-02
 -1.1229848e-02
 -4.8750881e-03
  1.6111336e-03
 -2.5348157e-02
  7.0941783e-02
 -2.0468049e-02
  9.1906618e-03
 -6.2279201e-01
  1.9595588e-03
 -2.1892875e-02
  1.0882760e-02
  1.8640097e-02
  1.3487393e-03
 -2.8091719e-02
  3.1153090e-02
  3.2648925e-02
  1.0179695e-01
  2.5687972e-02
  2.9411539e-02
  2.4390982e-02
  1.2391878e-02
 -1.1277129e-02
  3.7898354e-02
  2.3271197e-01
 -1.8244900e-02
 -1.3047165e+00
  5.7168594e-03
 -5.7106391e-03
 -1.9633470e-04
  3.6808543e-02
 -2.2938065e-01
 -2.5613246e-02
  9.7607821e-02
 -7.2662614e-02
  2.3489546e-03
 -7.2257318e-02
  3.3056062e-01
 -1.7581645e-01
  8.7746876e-01
 -2.1426228e-03
 -6.5365746e-03
 -5.8618173e-02
 -4.8136838e-02
 -5.2167423e-02
  1.7953384e-01
 -3.2788832e-02
  9.5828651e-03
 -5.2711163e-03
 -3.0693816e-02
 -1.5884870e-01
 -6.2616102e-02
 -5.7043735e-02
 -2.1985786e-03
  7.0800215e-02
 -3.4239484e-04
 -7.1580869e-01
 -5.5641081e-04
  8.4157154e-02
 -1.9330542e-01
 -8.0014187e-01
 -3.5659119e-01
 -7.8177880e-03
 -7.3492774e-03
 -3.6889703e-03
 -1.9377895e-01
  4.4009615e-02
 -1.6301455e-02
 -2.6156574e-03
 -6.5406747e-03
  1.1235567e-02
 -8.0434615e-03
 -2.0480581e-02
  1.5375414e-01
 -4.4784900e-02
  6.2788415e-01
 -5.0049607e-02
 -1.1419382e+00
 -2.4645044e-02
  1.1399565e-01
  2.2963889e-01
  8.0146939e-01
 -6.0432017e-01
  2.4260949e-02
  2.6528552e-02
  1.8982878e-02
 -1.3405068e-02
 -1.9932589e-02
 -6.0043901e-02
 -1.3425002e-02
  3.7782060e-04
 -3.6741032e-03
  8.1073605e-03
  3.1420454e-02
  3.9982080e-02
 -1.2242527e-02
  3.3048164e-02
  1.9491311e-02
  3.0678026e-02
  4.3096486e-02
  1.1693249e-02
 -1.6960965e-02
 -1.3370366e-03
  3.6624193e-01
 -6.1098669e-02
  2.6814467e-01
 -4.9792090e-03
  1.3207462e-02
 -1.1046695e-02
  9.7619649e-03
  8.5349195e-03
  3.4457333e-02
  3.6312554e-02
 -2.6391437e-03
  1.5616229e-02
  1.6658545e-02
 -5.3153247e-02
  2.8254129e-02
 -4.9204230e-03
  9.1384447e-01
  1.0983118e-01
 -7.9604650e-01
 -1.8043302e-01
 -6.7402530e-01
 -3.2159659e-01
  9.6414834e-01
 -5.4026511e-02
 -7.1137691e-01
 -2.3549963e-02
 -1.5198122e-01
  6.4935029e-02
  4.5897982e-01
  5.6942977e-02
  1.2146223e-01
 -2.8619003e-01
 -4.4781756e-02
 -1.1239715e-02
 -6.4486331e-01
  2.0946033e-01
 -6.1516900e-02
 -2.6412109e-01
 -1.2256608e-01
  4.0507875e-03
 -6.3071322e-01
 -5.8111500e-02
 -3.7331082e-02
 -1.3462847e-01
  1.8505825e-01
  3.9419122e-02
  2.6714223e-02
 -4.6364814e-03
 -1.4848162e-02
  5.1179271e-02
  1.0258843e-01
  5.0480090e-02
 -1.0433222e-02
 -4.6193991e-02
 -2.4199512e-02
  8.2028665e-02
 -4.1916552e-03
  1.1852114e-04
 -1.5588459e-01
 -9.8357098e-03
  6.4340369e-03
 -8.7391883e-03
 -1.9830789e-02
  3.6490397e-03
  2.5411356e-02
 -1.9576414e-02
  1.1026672e-02
  5.9996527e-01
  6.5626595e-03
  3.3449803e-03
 -2.2134710e-02
 -3.1964891e-02
  2.4574641e-02
  2.6098231e-03
 -1.1356544e-02
  2.0016534e-02
  3.1352954e-03
  7.2447481e-03
 -4.0145894e-03
 -9.6897092e-03
  1.9490002e-02
  7.1695102e-03
  2.1919380e-03
  2.2349168e-02
  1.3451301e-02
 -1.5006812e-02
 -2.4209747e-03
  1.9201164e-03
 -1.2892890e-02
  2.0830136e-02
  1.8485148e-02
 -1.9904582e-03
 -1.2836426e-02
 -3.7898429e-02
  1.6440834e-03
  2.8905977e-02
 -6.1300891e-03
  1.4982098e-02
  2.2189714e-02
  1.6943991e-02
  1.7178822e-02
  1.7703487e-02
 -2.0561511e-02
 -5.5122757e-03
  2.1808639e-03
  1.1074264e-01
 -2.1022065e-03
 -1.8880306e-02
  1.5750414e-02
 -6.3848146e-04
  2.4810876e-01
 -4.4832391e-01
  6.9281653e-02
 -1.2389581e-02
  2.4336508e-02
  9.5315306e-03
 -1.7659893e-02
 -1.9274244e-02
 -2.0913089e-02
  2.6548052e-02
 -1.2643816e-02
  1.1070383e-01
  1.0186753e-01
  1.0026793e-02
  3.6073076e-03
  2.3618124e-02
  7.1114423e-03
  5.6252568e-03
 -4.0703663e-03
 -1.7641285e-03
 -1.4616121e-03
 -1.6761465e-03
 -2.5115006e-03
  1.9222451e-02
 -3.8964428e-02
 -1.0829462e-02
 -5.6479648e-03
  1.3807084e-02
  1.3658344e-02
  1.8945601e-02
 -1.7788474e-03
 -4.5422171e-03
  3.1833733e-05
 -5.0249351e-03
  2.1546423e-02
 -6.7448705e-02
  3.3117905e-02
 -1.3323059e-02
  4.2597476e-02
 -6.1330563e-01
  2.6239076e-01
 -3.2518480e-02
  2.1082364e-01
 -6.8538415e-01
  9.7090340e-01
 -4.2508194e-01
  1.5360805e-01
 -1.4602765e-01
  2.5351113e-01
 -1.9311066e-01
  4.9287555e-01
 -4.8406145e-01
  1.2739822e-03
 -4.1309607e-01
  1.6989164e-01
  4.3408055e-04
  4.2721188e-01
 -6.5026544e-02
  1.0596925e-01
  2.9875133e-02
 -8.0565121e-03
  7.3155218e-01
  5.7946075e-02
  2.5448887e-02
  2.7778548e-01
  1.9262124e-02
  2.7252382e-01
 -2.6856089e-01
  4.5297202e-01
 -4.1391901e-04
  9.9864707e-04
  5.1006634e-02
  1.2152687e-01
 -7.6888673e-02
 -1.0684749e-02
  1.7130325e-02
 -5.9260130e-01
 -1.4578409e-02
  2.7329773e-03
  1.2042258e-02
  3.0494931e-03
 -5.5171666e-03
 -6.9004558e-03
  1.7465975e-03
  4.9267170e-01
  5.9402104e-02
  3.6147144e-01
 -2.3013696e-03
  9.4016856e-03
 -3.6153671e-01
  1.1010011e-01
  7.2746843e-02
 -2.9805710e-03
  2.2180737e-03
  3.4333713e-02
  9.0966411e-02
 -2.0171389e-01
  9.3383282e-01
  1.3312722e-02
 -3.3326644e-02
  6.6826589e-02
 -1.3082889e-02
 -5.1969499e-03
  3.9933538e-03
  6.1817750e-02
  4.2369249e-03
  1.6526349e-01
 -1.4906749e-02
  3.0109739e-02
  1.4690936e-03
 -2.3796141e-02
  2.2386672e-04
 -8.1985565e-03
  6.3391104e-03
 -3.1574223e-02
 -2.8777833e-03
 -1.2842230e-02
 -5.8620289e-02
 -4.0730223e-02
  1.2313266e-04
  4.4510301e-02
 -2.4631590e-02
  6.4186744e-02
 -1.9885223e-02
  2.1374618e-01
 -1.9747551e-01
 -8.6769146e-01
 -2.1239385e-02
  2.5527543e-01
 -3.0323520e-02
  5.2027748e-04
 -6.5321033e-03
 -3.0205563e-01
 -1.9836129e-01
  7.8354865e-02
  9.4923441e-04
  4.0407192e-02
  2.3298074e-02
  1.2182428e-01
 -5.7150800e-02
  3.9075177e-02
  3.8879540e-02
 -4.2762294e-01
 -1.3534582e-01
  1.1544785e-01
  5.2658476e-02
  2.1416450e-02
 -6.7587502e-02
  4.3253314e-02
 -1.2571850e-02
 -1.3073272e-02
 -2.3669116e-02
  1.1222596e-01
  4.0545847e-02
  1.6395224e-02
 -2.7304703e-01
  4.7900014e-02
 -8.6248621e-02
  2.9728978e-04
 -2.1054802e-02
  9.4790019e-02
 -3.5611802e-01
  1.0484954e-01
  1.1264327e-02
 -1.9254245e-02
 -8.6224824e-02
  2.2004014e-02
 -1.2441576e-02
  1.7606912e-02
  6.2389318e-02
 -9.1571903e-01
 -3.8619545e-01
  6.6059184e-01
 -3.2894275e-01
  2.3131369e-01
  1.1126938e-01
 -6.1817926e-01
  1.4754531e-01
  6.9432878e-01
 -6.9212639e-01
 -5.2993631e-01
 -4.1386819e-01
  7.9848301e-01
 -1.0520032e-01
  2.4586737e-01
  7.3071485e-03
 -5.9981030e-01
  3.1050745e-02
 -4.3916976e-01
 -1.3440641e+00
 -1.1629527e-02
  2.5093615e-01
 -2.7597609e-01
 -3.7641165e-01
 -4.6768031e-01
 -8.0501735e-02
 -1.0905828e-01
 -4.3329570e-01
 -9.0170652e-02
  6.0150657e-02
 -3.2558399e-01
 -3.2721434e-02
 -1.3032297e+00
  1.8634126e-02
 -9.4239920e-01
 -2.0779996e-01
 -1.5057445e+00
 -1.0272806e-02
 -1.3157295e-02
  1.8540129e-02
 -2.4368212e-02
  4.5368862e-01
  1.7873718e-01
 -1.2074032e-01
 -4.1614748e-03
  1.6790366e-02
 -4.4814399e-03
 -1.7132251e-02
  1.8342981e-02
  8.6641070e-03
 -2.3959072e-01
  9.5928210e-04
  8.2543818e-03
  6.0441257e-03
  5.8687929e-02
 -2.7852928e-02
 -1.3880279e-02
 -5.9856266e-01
 -1.2569210e-02
  1.4443523e-03
 -2.9241280e-03
 -8.5735191e-03
  1.2668666e-02
  3.2299035e-03
  1.2605931e-01
  8.7615158e-03
 -1.9112270e-02
 -1.0027503e-02
 -8.8378065e-04
  4.7440967e-03
  1.3217875e-02
  6.6980221e-03
  6.8831453e-03
  2.0810621e-05
  1.4729591e-02
 -2.2964508e-03
  7.3091085e-03
  1.0934481e-03
  2.9914606e-02
 -2.4910387e-02
  7.9160333e-03
  1.0276725e-02
  9.4869183e-03
 -1.2563813e-02
  1.2902075e-02
 -1.2111915e-02
  2.0923646e-02
  6.1516643e-01
 -1.0048773e-02
  1.4534198e-02
 -2.0088658e-02
 -2.2710370e-02
  1.8834126e-01
 -5.9196842e-03
  3.5178706e-01
 -3.8630930e-01
 -2.9024810e-01
 -6.5521104e-03
  9.9336039e-03
 -2.1360330e-02
 -7.1178074e-04
 -1.2289679e-04
  1.0949804e-02
 -2.3199804e-02
  9.5078692e-02
  3.5551187e-02
  4.6800923e-02
 -2.1350319e-02
 -5.6211043e-02
 -8.2841543e-03
 -3.2758486e-02
  3.1844380e-03
  4.8164814e-03
  1.2555399e-02
  3.3355127e-03
  2.6154493e-03
 -3.1973538e-03
  2.3433451e-02
 -1.3584409e-02
 -1.8257739e-02
 -1.5933804e-02
  2.1281507e-02
 -5.2042652e-02
  8.8469032e-03
 -2.2975942e-02
  2.9698532e-02
 -1.4458847e-02
 -1.4836263e-02
  7.8766135e-04
 -7.7113137e-03
 -5.9596478e-04
 -3.8262799e-03
  9.4608329e-02
 -3.1922802e-02
 -2.2894600e-02
  7.7582584e-03
 -8.1027939e-04
 -6.8670098e-04
  1.7699985e-02
  2.6084105e-03
 -1.0323784e-03
  4.0497482e-02
  1.8853579e-02
 -2.1428687e-02
  1.1838649e-02
  1.7765404e-03
 -2.6761625e-02
  1.8669864e-03
  5.5933869e-03
 -1.4173335e-02
 -1.4410274e-02
 -1.0715969e-02
  6.0040606e-03
  6.1495830e-03
  1.8488133e-02
  1.4215407e-01
 -4.4111468e-02
 -2.2909665e-02
  1.6457966e-02
 -2.7205475e-02
 -2.3210043e-02
 -4.1063842e-03
 -2.0051824e-02
 -2.3287604e-02
 -1.9369477e-02
 -6.7198011e-03
  1.9203473e-02
 -2.3805045e-03
 -2.5178574e-02
 -5.3786803e-03
  2.9394272e-04
  1.0660618e-02
  4.8431559e-03
  1.0132959e-02
  2.2228861e-02
 -2.5266210e-02
  6.8146998e-01
  6.4232481e-01
 -6.7674720e-01
 -1.9249036e+00
 -7.0503548e-02
  4.0966833e-01
  3.6617705e-01
  1.0381366e+00
  1.2589376e-01
 -6.8631303e-01
 -3.9276358e-01
 -1.1841197e+00
 -5.7143801e-01
  4.1954628e-01
  1.7005298e+00
 -4.9873356e-02
  7.3836539e-03
  4.4426930e-01
 -1.3424942e-01
  5.1646065e-03
 -1.5409291e+00
  2.6993477e-01
 -7.8405529e-02
 -5.8292544e-01
  3.9469335e-02
 -2.9574713e-01
 -1.1595405e-02
  1.7866946e+00
  1.0985651e+00
 -1.7679697e+00
 -6.3707304e-01
  2.0050366e-01
 -2.5726309e+00
 -3.0254182e-01
 -1.2009754e+00
  1.5329473e-01
 -6.5828568e-01
  5.8973907e-03
 -1.3531342e-01
  1.9418554e-02
  8.1507285e-04
  5.6179106e-01
  3.1366323e-03
 -9.8187901e-02
  3.0856792e-02
 -2.9125413e-02
 -9.6716722e-03
 -7.6801074e-03
 -2.7787184e-02
 -2.3411000e-02
 -2.4891211e-02
 -2.8502554e-04
  2.0406917e-02
  2.6757908e-03
 -2.7018092e-03
 -1.6104609e-03
 -3.9176755e-03
 -1.1366468e-02
 -2.7743888e-03
  4.6988968e-03
 -1.6800664e-02
  1.1534140e-02
 -6.0877348e-03
  4.4196360e-02
 -9.3435298e-04
 -1.7655365e-02
  2.5484253e-02
  8.3626501e-02
  5.6507173e-03
 -8.4717164e-04
  1.2425135e-02
  2.0142121e-02
  3.7939332e-03
  1.4255139e-02
  1.5957138e-02
 -2.0357067e-02
  1.2553988e-02
  2.4374234e-03
 -1.3395365e-02
  9.9247498e-03
 -4.2487096e-02
  6.1036635e-04
 -2.0593254e-02
  3.8504545e-02
  1.2333361e-02
  2.9773023e-02
  2.1561885e-02
 -7.7295396e-03
  1.6743055e-02
  1.2002727e-02
 -6.2184930e-02
  3.3804405e-02
  4.2702302e-02
 -1.8979223e-04
 -1.6188750e-02
  1.3080483e-02
 -2.3455225e-02
 -9.6602375e-03
  1.0122442e-05
  1.0894444e-02
  5.4853014e-03
 -6.8580457e-03
  2.7215525e-03
  1.4607154e-03
  3.5232683e-03
 -1.0695122e-02
  3.2713868e-02
 -1.6845299e-02
 -1.0033378e-02
 -6.5380405e-03
  2.2289688e-02
 -5.5250051e-03
  1.9203899e-02
  4.8082722e-03
  5.8677644e-03
 -9.9856255e-04
  1.5228901e-02
  2.4421806e-02
 -3.3274200e-02
 -1.7858478e-01
 -1.1523131e-03
  9.0403045e-03
  1.2287924e-02
  2.5828769e-02
 -3.4082174e-02
 -3.6758699e-02
 -2.3245860e-02
 -1.2085098e+00
 -7.0321346e-03
  1.8258477e-02
 -2.4802973e-03
  1.0688632e-02
  1.0196868e-02
 -3.1923555e-02
 -2.2895297e-02
  8.9555748e-02
  2.6130674e-02
 -2.6172556e-03
  3.8764861e-03
 -8.7151863e-04
  8.7798377e-03
 -4.5606036e-02
  1.0695314e-02
 -5.6997772e-02
  1.4521693e-02
  4.2218934e-03
  5.2602887e-03
 -2.4145447e-02
  1.6254056e-02
 -3.1875089e-02
 -1.2181018e-02
 -3.7818175e-02
  2.4358902e-02
  1.0228974e-02
 -2.8714327e-02
  2.2207618e-02
 -7.2554627e-05
  3.8481679e-02
 -4.6027247e-02
 -1.8274702e-02
  4.1896336e-02
  2.1303615e-02
 -2.6215706e-02
  5.4259757e-03
 -1.4671208e-02
 -4.7717381e-02
  4.8641539e-03
 -1.1545286e-02
  8.2419813e-03
  1.6929582e-03
  5.6322142e-03
 -7.6261330e-03
 -2.5930667e-02
 -3.9746882e-03
  3.5879008e-02
 -1.7766210e-03
 -7.2141397e-01
 -2.7416235e-02
 -3.7191607e-02
 -1.0651339e-01
 -6.5887138e-02
 -3.0045167e-03
 -1.5035245e-02
 -4.9289286e-01
  3.0776877e-02
 -1.8832155e-01
  1.0808249e-02
 -1.5422504e-02
 -7.9170913e-03
 -8.9505039e-02
 -1.1091887e-01
 -1.5401365e-01
  9.8675601e-03
 -8.3123796e-02
  7.8111109e-03
 -1.5206147e+00
  2.4033995e-02
  1.0480106e-02
  2.0746593e-01
  1.7872650e-02
 -2.2534346e-03
 -5.0407779e-01
 -3.5262352e-03
  9.9113034e-03
 -2.1233918e-01
 -3.2003927e-01
  3.7613041e-03
  9.1727942e-02
  4.3971166e-02
  2.1200528e-02
  1.7538387e-01
 -8.3992649e-03
  1.5995088e-03
  4.5239576e-03
  4.3522187e-02
 -7.3264726e-02
  5.5487681e-02
 -4.8709479e-03
  2.5373330e-02
  8.6996332e-03
 -2.9589579e-02
 -2.4995852e-02
  1.4335494e-02
 -3.9881337e-02
  2.2829000e-03
 -3.2728359e-01
  1.3015560e+00
  4.2611253e-03
 -8.4814914e-03
  4.7653727e-03
 -4.7574593e-03
  8.7555656e-03
 -1.8758208e-02
  3.7969774e-04
  1.0914948e-02
  1.2342851e-02
 -1.8597816e-03
  2.9377064e-02
  6.6586565e-03
 -1.9645628e-01
  5.1504048e-03
 -2.2238892e-02
 -8.5920036e-02
  7.7467388e-03
 -1.7988257e-02
 -2.6656964e-03
  3.3213394e-03
  1.9184269e-02
  2.6356464e-03
 -9.5108086e-03
  4.4828113e-03
 -2.4140314e-03
 -5.2320383e-02
  6.4145587e-02
 -2.4873128e-03
  1.8369898e-02
  7.9726027e-03
  1.4549654e-02
 -2.6846722e-02
 -3.7836686e-02
 -3.4502331e-02
  1.9253114e-02
  3.1312898e-02
 -9.7491946e-03
  5.5812807e-03
  7.8061391e-03
  4.3364307e-03
  2.8708998e-02
  4.7866680e-04
  4.8451358e-03
 -3.2157734e-02
  1.8071085e-02
 -2.6105357e-02
 -2.5235803e-03
  1.3886689e-02
  2.2062741e-03
 -1.3396866e-02
  9.0889435e-04
  1.7933339e-04
  8.2583800e-03
 -9.5336949e-03
  2.0970182e-02
 -1.9391432e-02
  3.0905270e-04
 -5.0398968e-02
  5.5688411e-02
 -1.2343012e-02
  1.6975879e-03
 -6.8156412e-03
 -2.5272356e-02
 -8.4933741e-03
  3.5956614e-02
  9.3049183e-03
 -2.0128761e-03
 -5.1363059e-03
 -3.1976208e-02
 -3.7653742e-03
 -8.2483450e-03
  2.4471249e-02
  2.3647353e-02
  6.1430209e-03
  2.6064601e-02
 -1.3356584e-02
  4.5956392e-03
  5.8278018e-03
  2.0926125e-02
 -1.2176412e-02
  1.0250099e-02
  1.4255499e-02
 -1.3044788e-02
 -6.1303917e-02
 -3.0464929e-02
 -8.9176521e-03
 -3.6725816e-03
 -8.3304912e-02
  3.0365982e-03
  3.2145359e-02
  2.9623905e-02
 -1.1466073e-02
 -2.0522185e-02
 -1.1136585e-02
  1.1612024e-02
  7.9755606e-03
  7.1391519e-03
 -1.8882412e-02
  1.5709572e-02
 -5.5212468e-02
  1.1649651e-03
 -2.7783485e-02
 -6.1120591e-03
 -2.4586743e-02
 -4.2560011e-02
 -1.5849303e-02
  1.0082693e-02
  8.4446212e-03
  1.4262069e-02
 -2.5070231e-02
  8.5043542e-02
  1.0906120e-02
 -2.1450942e-02
 -8.0816023e-02
 -1.1151598e-01
 -5.9027247e-02
  1.3301654e-03
 -7.7205092e-02
  2.8251570e-02
 -4.7885398e-03
 -1.4742679e-02
  8.2873674e-03
 -1.4444448e-02
 -1.4877928e-02
 -1.4817767e-02
 -6.3254833e-01
 -4.5233342e-01
 -2.7831507e-01
 -6.7135292e-01
  4.0397033e-01
  1.0369116e+00
  1.0075767e-01
  1.5172522e-01
  6.6888249e-01
  2.5502393e-01
 -5.2458416e-03
 -3.8974915e-02
  1.3511456e-02
  9.7050872e-03
 -1.3852045e-03
  2.9573778e-02
 -5.9961051e-02
 -4.8123099e-02
 -2.2873507e-01
  2.3002564e-03
 -1.1317043e-02
 -2.4050598e-01
 -2.2034767e-01
  1.0798859e-02
 -2.5144640e-02
 -1.0886623e-02
 -1.9599648e-02
  3.3357263e-02
 -7.4168700e-03
 -2.7861291e-01
 -6.8158701e-02
 -3.3389041e-01
 -7.7999991e-01
 -4.6583833e-04
 -1.3063436e-02
  3.3577707e-02
  2.9650440e-02
 -1.1248549e-03
  2.4372535e-03
 -4.5342803e-02
 -2.5290025e-02
 -1.1596236e-02
 -1.0366140e-02
 -7.0013659e-04
 -3.9550543e-01
 -6.9202766e-02
 -1.1101280e-02
  4.7732899e-03
  2.5100642e-01
  1.4731059e-03
 -3.2668984e-01
 -1.1846466e-01
  7.0358850e-02
  2.4235539e-02
 -1.5155448e-02
 -8.0389149e-02
  8.7099932e-02
  1.2985100e-01
 -6.3891569e-03
 -1.4611744e+00
  2.8991848e-02
  1.3510211e-02
  1.7473611e-01
  3.0300219e-02
  8.6018089e-03
  1.5985459e-02
  1.2126415e-02
  1.0320543e-02
  6.8060458e-02
  9.0209898e-03
  3.5646576e-02
 -1.9639004e-02
  1.4786083e-01
 -6.8306506e-02
 -4.5572049e-03
 -1.0153158e-02
  1.0138202e-02
  4.2610228e-02
  1.1454843e-01
 -7.4957289e-02
  3.5202183e-02
 -1.0664029e-02
  3.5487074e-02
  6.6598859e-03
 -1.9104885e-02
 -1.4449035e-02
 -6.9930747e-02
  3.9165899e-02
  7.6791025e-03
  2.8118613e-01
  3.6751551e-03
 -5.7397308e-03
 -3.7544623e-02
  5.3677415e-03
  7.2847612e-02
  1.3697979e-01
 -3.3044968e-02
 -4.7404394e-03
  1.0023662e-02
  2.1941408e-03
  9.8621203e-03
  3.6460564e-03
  5.8095747e-01
  1.0065668e-02
 -3.6042153e-03
  9.9168736e-03
  4.9992125e-02
  1.9227855e-02
  5.2296137e-03
  2.4922490e-02
 -1.0314343e-02
  5.9393714e-03
  2.3653504e-02
 -6.9612465e-03
  2.1600548e-02
  1.3573562e-01
  2.5975153e-02
  1.7890296e-03
  3.1807370e-02
 -8.6265774e-03
 -4.4178452e-02
  1.5696961e-03
  2.9926533e-02
 -4.6254597e-03
  1.5469472e-02
  2.0471096e-02
  5.9031630e-03
 -1.9969307e-02
 -4.4206597e-02
  3.7956629e-02
  1.5887687e-01
 -7.8951955e-02
  3.0556214e-01
  4.1489724e-02
  3.5509218e-02
  9.6372869e-03
 -4.1481685e-02
  6.3306749e-01
  3.0487692e-01
  1.9792406e-01
  2.9102328e-01
 -2.7151424e-02
  2.7431410e-03
  1.8444719e-02
 -1.9775020e-01
  1.7116667e-01
 -3.8921770e-01
 -1.9755763e-01
  6.9749518e-04
  1.5213760e-02
 -5.2364338e-02
 -2.3004349e-02
  3.8197439e-04
  3.3228605e-03
 -4.5803869e-03
  1.1912367e-02
 -3.4564785e-03
 -2.1075507e-01
 -1.2849108e-02
 -2.6712101e-02
 -6.0127455e-01
  5.8187493e-03
 -4.0681660e-02
 -8.3717185e-01
  1.4661326e-02
  2.4089539e-01
 -2.0667432e-02
  1.2226308e-01
  4.2374623e-03
  1.2856674e+00
 -4.3813087e-02
  2.2553777e-02
 -2.0485714e-02
  2.6658287e-02
 -1.5446878e-02
  1.8626921e-03
 -1.0898940e-02
  1.5252888e-02
 -2.0500999e-03
 -1.5576293e-02
 -2.9032221e-02
  2.6910123e-04
 -4.8641875e-02
  7.9466645e-03
 -1.1593401e-02
 -1.0486805e-02
  3.4417193e-02
 -2.5891496e-03
 -1.3077129e-02
 -1.1448721e-02
 -2.3051683e-02
  1.8841416e-02
  3.6293520e-03
  5.6012899e-02
  6.3507609e-02
  8.7241076e-02
  8.9195833e-02
  1.0011410e-04
  1.3916844e-02
 -1.7544925e-02
  5.1585995e-03
  2.2300165e-02
 -3.2440849e-02
 -1.2963716e-02
  6.7603303e-04
 -2.4088740e-03
 -1.5790071e-02
 -7.2807199e-03
  2.2620182e-02
 -8.4221759e-04
  1.7806718e-02
  1.3432673e-02
  1.2819612e-03
  2.0988995e-02
  3.1841576e-02
  1.8841151e-02
  9.7368779e-03
 -1.7419189e-03
 -2.5601541e-03
 -2.0691577e-02
 -1.3348932e-02
  1.1632490e-02
 -9.0642264e-03
  1.1579275e-02
 -1.5762584e-02
  4.6782389e-01
 -2.7381900e-01
  1.7826093e-02
 -1.2567206e-03
 -1.7056266e-02
  6.0884234e-02
 -1.9603226e-02
 -1.4229039e-02
 -3.2426429e-01
  7.3859557e-03
  5.7363873e-03
 -4.4616433e-03
 -6.4202813e-03
 -1.9314913e-02
 -6.5581203e-03
  4.7846369e-02
 -1.8785316e-02
 -2.7493479e-02
  2.9640369e-02
  1.5854746e-02
  1.4830104e-04
  5.7616195e-04
  4.2618313e-03
 -7.8367657e-04
 -3.0948663e-01
  1.6645530e-02
 -2.6740095e-02
  1.8973780e-03
 -1.0152147e-02
 -2.0141685e-02
 -1.9949086e-02
 -2.6295071e-02
  3.9571606e-02
  1.1526772e-02
  2.6604636e-02
  4.2113662e-02
  1.1636629e-03
 -3.8501204e-03
  1.1799104e-02
  2.8344074e-01
 -6.2082835e-02
 -2.4272528e+00
 -8.1600070e-01
  1.7537748e-02
  1.5823618e+00
 -6.9922721e-01
 -2.4009041e-02
 -5.1306230e-01
 -5.2324481e-02
 -2.0320209e-02
  1.1825082e-02
  1.6994521e-01
  2.4465883e-01
  5.1738214e-01
  1.5446551e-02
 -2.1995626e-02
  1.5792241e-02
 -3.4437093e-01
 -1.8701166e-01
 -5.5970889e-01
 -8.3770424e-01
 -7.7172732e-01
  8.9535373e-04
 -3.1059289e-01
 -9.6486844e-02
 -8.3409861e-02
 -9.7020324e-03
 -2.8482610e-01
  7.1487091e-02
  3.6220762e-03
 -1.9413957e-02
  2.6781650e-02
  1.0423291e-02
 -3.1792643e-03
  4.1188370e-02
  1.7866738e-02
 -2.5896071e-03
  6.1691124e-02
  9.8983496e-03
  2.7937987e-03
 -9.3699349e-03
 -4.5258500e-02
 -8.0918027e-03
 -1.0144064e+00
 -1.7422715e-01
  2.9566371e-01
  4.6058227e-03
  7.2767206e-02
  1.1527970e+00
 -7.3620468e-01
 -4.9927878e-01
 -1.8626678e-01
 -1.0966863e-01
  2.3503494e-01
  3.2257069e-02
  2.7867323e-01
  2.2253418e-02
  4.5567010e-02
 -5.6927159e-02
  5.6575187e-02
 -3.3288661e-02
  9.4810510e-03
 -2.6095309e-03
 -3.2717314e-02
  5.9287255e-03
  3.7977424e-02
  7.2521091e-01
  1.2664630e-01
  2.5610050e-02
  1.3596756e-02
  6.1132396e-03
 -7.4003559e-01
 -1.9099154e-02
  1.9600007e-01
 -1.6586265e-02
  2.3220127e-02
 -2.1920395e-03
  2.9842731e-02
 -8.1450120e-02
  1.7854555e-02
  1.0171185e+00
 -9.7023314e-03
 -9.2351669e-03
  5.1026349e-03
 -1.0704645e-02
  2.4130078e-02
 -6.9330749e-03
 -1.2451298e+00
  1.4495289e-01
 -2.3328866e-01
  3.7833996e-02
 -5.5463350e-01
  3.1027541e-02
 -1.8569129e+00
  1.2039697e+00
 -4.5232162e-01
  1.5091661e-01
 -1.2306096e-02
  1.4828399e-02
 -1.4647692e-02
  1.4169835e-02
 -7.4847654e-02
  7.7281244e-02
 -6.2283967e-03
 -1.7662030e-01
  2.8522747e-02
  3.9311148e-02
 -2.1318318e-03
 -1.2654607e-03
 -6.5317288e-02
  3.1040056e-02
 -1.7553847e-02
  4.3917508e-03
  5.0327447e-03
  3.7289546e-03
  2.2766748e-03
 -7.2470228e-03
  7.3300123e-02
  6.5940046e-03
  1.7236715e-02
  3.9240789e-02
  1.3356426e-03
  1.2814949e-02
  2.9784754e-01
 -5.6995265e-03
  1.8764794e-02
  5.0573532e-02
  1.0049767e-02
  9.9855755e-03
  6.0952106e-03
  1.4415776e-02
 -1.8014240e+00
 -1.4747571e-02
 -2.2344515e-01
  2.5861452e-03
  6.0293123e-02
  4.7011387e-01
 -2.3750896e+00
 -1.8156594e-01
 -2.2482033e-01
  2.1160606e-02
  2.9016551e-01
 -1.9310254e-01
  1.8284130e-01
  3.2633203e-01
 -7.2337300e-02
 -3.9590055e-01
  4.7199312e-04
  4.1299134e-02
  3.4518909e-02
  6.1832718e-03
 -2.5223546e-02
  1.1603648e-01
 -1.3889440e-03
 -2.0489325e-03
  1.0038552e-01
 -2.5951510e-02
 -1.9465474e-02
  7.9476371e-02
  2.9730949e-01
 -7.8390330e-02
 -1.1770678e+00
  5.4592520e-02
 -1.3364221e+00
 -1.6674458e+00
  3.2042444e-03
  2.2667775e-01
  2.5615740e-01
 -3.5083361e-02
 -2.3785727e-02
  1.4423469e-02
  4.7731467e-02
 -7.0431661e-03
 -4.1580178e-02
  1.6850404e-02
 -9.9989158e-01
 -3.9506026e-02
  2.2049658e-02
 -3.7625162e-03
 -1.9816307e-02
  7.1761549e-02
 -1.6199929e-01
 -3.9659385e-02
  6.1005145e-01
  1.6052686e-02
 -5.7100491e-03
  1.5359341e-02
 -4.0391563e-03
  5.7014697e-03
  1.5379070e-02
  1.4369602e-02
  3.7966371e-02
  2.7417816e-02
 -9.0016546e-03
  3.4683023e-03
  8.9102071e-03
  5.5627752e-02
 -8.5655162e-03
  2.5337076e-02
  6.4719364e-02
  2.1320002e+00
 -6.7859534e-03
  1.4066587e-03
  2.0419394e-03
 -8.0837034e-02
 -2.8534865e-01
 -1.0525526e-02
 -4.2625242e-03
  1.0340150e-01
  1.6070500e-02
  1.0365334e-02
  2.9956127e-02
  5.8459318e-03
  2.0303049e-03
 -1.2032984e-02
 -3.1792726e-03
 -3.7133722e-03
 -6.7112274e-02
  9.2533547e-03
 -5.0885477e-03
  1.4081076e-01
  1.4280519e+00
 -2.4418302e-01
 -6.8312874e-03
 -7.1788477e-03
  1.9125639e-02
 -2.3100905e-01
 -1.0964606e-02
 -2.3588233e-02
  7.2342712e-03
  5.4197580e-02
  1.3684385e-02
 -5.0720070e-02
 -3.0062601e-01
 -1.2265691e+00
  5.6817862e-03
 -3.7229857e-01
  2.9064298e-02
  8.1914179e-03
  3.7051074e-02
  9.7745520e-01
 -7.5567556e-03
 -3.4335520e-02
  2.8727964e-02
 -2.4840614e-02
 -2.1370450e-01
 -2.2238739e+00
  1.9102674e-02
 -6.4887670e-03
  3.8187593e-02
  4.6353608e-01
  2.1909831e-02
  1.4139889e-02
  4.0934656e-02
  9.3676321e-02
 -2.4145687e-02
 -1.3391532e-02
 -2.4793791e-03
 -4.1722469e-02
 -9.3747536e-03
 -4.7197390e-01
  2.1016726e-01
  1.7485909e-02
 -1.3264953e-02
  1.5232882e-02
  2.0278467e-01
 -7.3259532e-01
 -3.7296060e-01
 -3.5492253e-02
 -7.8259677e-02
 -4.6240678e-01
 -9.5250034e-01
  3.0362698e-01
 -2.8315993e-02
  3.4004101e-03
  2.0746963e-01
 -9.2112362e-01
 -6.1711832e-03
  3.0711494e-02
 -2.2927631e-02
  1.6151081e-01
 -4.3054652e-01
 -9.4553819e-03
  1.8460509e-01
  5.0637078e-01
  1.8220821e-01
  1.0343760e+00
  2.3292987e-01
 -2.5810263e-01
  1.6656417e-01
 -6.7785102e-01
  3.6859598e-02
  1.4872559e-02
  5.2157909e-01
  4.8800161e-01
  7.2908491e-01
 -1.5884008e+00
  1.0439961e-01
  2.5075474e-03
  9.6726730e-02
 -5.4411954e-01
 -4.3020543e-02
  1.8898229e-04
  6.3629352e-02
  3.3389446e-01
  4.5644306e-03
 -4.7449409e-03
 -2.3952021e-01
 -2.8562003e-01
  2.9525757e-01
 -5.0942607e-02
 -2.3817456e-01
 -1.5080429e-02
 -2.0374630e-02
 -3.4461305e-01
  2.3753379e-01
  3.1106153e-01
  2.2629936e-01
  1.0756403e-01
  7.9451673e-02
  2.0512171e-02
  1.0082882e-03
  5.0424621e-03
 -5.6845047e-02
  4.8759244e-02
  7.7912569e-02
  2.2670400e-01
  9.3092205e-04
  1.7281050e-03
 -3.6837790e-02
  8.9573510e-02
 -1.1198749e-02
  3.2531254e-02
 -1.1140453e-02
  2.3397770e-02
  4.0880553e-03
 -6.6415523e-03
  5.5286534e-02
  1.1830065e-02
 -1.5498593e-03
  9.2625739e-03
  4.2197336e-03
 -2.8288739e-02
  1.3316742e-03
  7.7190292e-03
  1.5436362e-03
  3.3779650e-03
  3.8063370e-02
 -7.3579419e-03
 -1.1940822e-03
  3.7906691e-02
  3.2283533e-02
  1.2462570e-02
  2.3868315e-02
 -2.9325150e-02
  1.2572054e-02
 -5.0628632e-03
  3.0704087e-02
 -1.0172706e-02
  1.7991513e-02
  8.4106177e-03
 -1.0100599e-02
  1.5919904e-03
 -1.0778547e-02
 -3.0465880e-01
 -1.3183492e-02
 -2.4293915e-03
 -1.4139950e-01
  5.6650704e-01
  2.5321949e-02
  6.0268706e-01
 -5.3874038e-02
  2.0371854e-02
 -5.6351882e-01
 -1.4719076e-02
  2.5824764e-01
 -2.4995099e-01
  8.2376726e-02
  1.0276422e-01
  1.1346506e+00
 -5.9243586e-02
  3.4739755e-02
  7.9395600e-02
 -6.1856441e-02
  2.1603829e-01
 -2.1937029e-01
  3.0510592e-01
  2.8182244e-02
 -1.2172427e-02
  1.1153943e-01
 -6.5689601e-02
  5.9325430e-03
 -2.4686659e-02
  9.8573722e-02
  3.2825377e-02
  2.3817291e-02
  3.4453580e-01
 -1.0447842e-01
  2.7536589e-01
  7.7684768e-02
 -4.4808190e-02
 -1.8228984e-02
  9.1760390e-02
  1.2406431e-01
  2.4516597e-02
 -1.7393541e-01
  1.8185903e-03
 -8.8569811e-03
  1.1721050e-01
 -7.3485384e-03
 -2.0482205e-02
  3.2972645e-02
  3.0425468e-01
 -4.4287454e-02
  1.9900300e-02
 -1.8694183e-02
  7.3446836e-03
  1.2343046e-02
  2.8957224e-02
  2.9956119e-03
 -5.7098188e-02
  5.4958829e-04
 -2.7871806e-02
 -6.9736955e-03
 -2.7641902e-02
 -3.0212872e-02
 -7.0555746e-03
 -1.2497953e-02
 -3.0219110e-03
 -1.9168099e-02
 -5.6245655e-02
 -2.6663084e+00
  2.6135093e-02
 -1.0986174e-04
 -1.8304590e-02
  1.2597562e-02
 -2.8904609e-02
  1.4089227e-02
  5.7245851e-03
 -1.0700050e-02
  2.1409316e-02
 -4.3372360e-01
 -6.3930219e-03
 -1.4585239e-02
  7.4533261e-02
 -4.9186032e-02
 -2.9022090e-02
 -3.2190159e-03
 -1.5251883e-02
 -1.4823032e-02
  7.0154108e-02
 -1.7849869e-01
  6.8024762e-02
 -1.0512403e-01
 -1.4473786e-02
  5.9966925e-03
 -4.3329290e-01
  3.6918864e-02
 -2.0045100e-02
 -6.6727464e-04
 -1.5486524e-01
  1.1624251e-02
  7.7036634e-02
  2.0516516e-01
  2.9095719e-02
 -2.2141606e-02
 -6.4171669e-03
 -6.0297612e-02
 -2.0235866e-01
 -2.3033959e-03
  2.4653787e-02
  2.2556758e-02
 -2.4880104e-02
 -3.5556681e-02
 -6.7989263e-03
  1.1408402e-02
 -1.0727053e-02
 -9.8926919e-03
 -1.5503087e-02
 -1.2833561e-02
 -2.1340898e-01
  6.4919782e-03
 -1.0596061e-02
 -4.5061147e-01
 -1.2280896e-02
  4.9778965e-04
 -1.3896625e-02
  4.6107881e-03
  7.7800825e-03
 -3.4706462e-03
 -1.5003556e-02
 -5.1653299e-02
 -6.1991862e-03
  1.3466310e-02
 -6.8040838e-04
  4.2483687e-01
 -4.6210936e-01
 -3.7856400e-02
  1.2487900e-01
 -1.7548975e-01
  5.7036543e-01
  2.7220035e-01
  6.2878020e-02
 -7.3517591e-02
 -6.4586356e-02
 -1.7625767e-01
 -4.0317070e-01
  1.1659294e-01
 -3.7417442e-02
  6.9745898e-01
 -3.2889407e-02
 -1.3912535e-01
  5.4673934e-01
  3.9240602e-01
 -5.7696110e-01
 -2.6124970e-03
  6.1317939e-01
  1.5366505e-02
  1.4033513e-01
 -8.7102531e-03
 -1.2600473e-02
 -4.2495835e-01
 -5.0076258e-01
  6.5935585e-03
 -3.7163192e-01
  9.6518792e-02
  1.9862194e-02
  2.8330877e-01
  2.1594082e-01
  1.0884538e-02
  9.7892433e-02
  8.5973531e-02
  6.2585354e-02
  1.2920806e-01
  1.3337120e-01
 -1.0387946e-01
  9.6249424e-02
 -3.7650424e-01
 -9.4489576e-03
  1.6455932e-02
 -2.8142624e-02
 -2.2613141e-03
  2.4271214e-02
  3.6122286e-01
 -2.4899901e-04
 -3.8819268e-02
 -1.8432787e-02
  2.2741199e-02
  2.7550580e-02
  2.9323494e-02
 -1.6714871e-02
  1.1523929e-02
 -2.2457916e-02
  6.0477466e-03
  5.1826350e-03
 -3.0399935e-04
  2.1569200e-02
  2.0499985e-01
 -4.1183561e-02
 -4.1188106e-02
 -4.1746318e-02
 -2.9901627e-02
  1.2548584e-02
  1.6597364e-02
  2.9510143e-03
 -2.4152635e-02
 -1.3530696e-02
  6.2442282e-03
 -1.8648425e-02
  1.1218646e-01
 -4.3679137e-02
  5.7097822e-02
 -1.6854004e-03
  6.6335671e-02
 -6.1363500e-02
 -5.7334774e-03
  1.4833959e-02
 -2.9172370e-02
  6.2300451e-04
 -1.1654903e-02
  2.2694829e-03
  7.9908146e-04
 -1.4844570e-02
  3.7744464e-04
 -1.7407004e-02
 -2.4645098e-02
  7.3333313e-03
 -3.0071756e-02
 -4.9668532e-03
 -7.5711776e-03
 -5.8532031e-03
 -3.4669668e-03
  2.4141563e-02
 -1.6255683e-03
  2.3396194e-03
  9.7514410e-03
  5.6350562e-03
  3.7441861e-03
  1.0172115e-01
  8.2512537e-04
 -1.1307454e-02
 -5.0306567e-03
 -3.3356860e-02
  7.8032416e-04
  4.3971758e-02
 -1.0835423e-02
 -2.1079272e-02
 -2.7248297e-02
 -6.1659990e-03
  1.0251614e-02
 -5.5813976e-02
 -1.4466446e-02
  1.1934455e-02
  1.5208919e-02
 -1.3310545e-02
  3.2939830e-01
  8.1822034e-03
  3.2265905e-02
  5.2427471e-02
 -5.2703372e-03
  1.2288606e-02
  2.2552505e-02
  1.3653939e-02
 -2.0410001e-02
 -1.3674043e-02
 -5.3296302e-02
  2.6022755e-02
  1.5152253e-01
  6.5933987e-02
 -1.4854209e+00
  3.6709148e-02
 -3.2704747e-01
  1.9121249e+00
  6.0211156e-02
  9.2859417e-01
 -5.1007569e-02
  2.1955422e-01
 -1.0226646e-02
  2.9573259e-01
 -1.3556416e-01
 -2.0895845e-03
  3.5029382e-02
  4.3619905e-02
 -7.7934186e-03
 -1.2602117e-03
  1.2316835e+00
 -5.9957434e-03
 -8.6448016e-03
  4.6919867e-02
  9.7908750e-02
 -4.4633597e-02
 -4.6033803e-02
  4.8178181e-02
 -2.0503167e-02
 -4.8187070e-02
 -2.9201361e-03
  5.3275838e-02
  1.8206098e-04
 -6.6883236e-02
 -8.2822563e-03
 -1.8681057e-02
 -4.1535571e-03
  2.5990764e-02
 -4.9099635e-02
 -1.6604664e-03
 -2.4979832e-03
  1.8710667e-02
 -2.2370876e-03
  1.7218404e-04
  3.4088548e-03
  8.5391235e-03
  1.5132563e-01
  1.5428804e+00
 -2.0308024e-01
 -1.1918424e-01
 -5.4028171e-01
  6.0976124e-01
 -1.4604016e-01
 -3.3305812e-01
  4.8699808e-01
  6.1538689e-02
 -5.7781082e-01
 -9.1507310e-01
  5.8426505e-01
  1.0072367e-01
 -4.0622586e-01
  4.2018196e-01
  2.3706333e-01
 -3.3866087e-01
 -1.8481348e-01
  7.8751713e-01
 -3.8536858e-02
  5.2103917e-03
 -3.7667140e-01
  4.7681919e-01
  4.6642533e-01
 -1.9712096e-01
  2.3599542e-03
 -1.5695533e+00
 -8.4902018e-01
 -9.6703023e-01
  3.6798081e-01
 -3.7162074e-01
 -8.3713287e-01
 -5.4570699e-01
 -4.4042394e-02
 -9.2572644e-03
 -7.1974587e-01
 -7.5953609e-01
 -8.0908023e-02
 -6.3338010e-03
 -5.6875652e-01
 -1.3288215e-01
  1.2245841e-01
  5.1724099e-02
  3.7467137e-02
 -1.2518095e-03
 -3.2390706e-02
  1.2007707e-02
  1.8125026e-02
  8.1798946e-03
 -3.1169809e-02
  1.1048244e-02
 -2.5796760e-02
 -3.5035086e-03
 -1.8605852e-02
 -2.4341051e-02
 -3.9640069e-02
  1.1854455e-03
 -1.7398629e-02
  2.7800173e-02
  1.6402215e-02
  4.9658911e-03
  6.7415824e-03
 -1.5760560e-02
  2.4452982e-02
  7.8470990e-02
 -1.7983902e-02
  1.9600429e-02
 -5.2910815e-03
  2.4223540e-02
 -8.0360010e-02
  1.3874194e-02
  2.4817039e-01
 -2.4587784e-02
  3.1412506e-01
  2.4877721e-02
 -2.6985226e-02
  2.2769100e-03
 -2.0088034e-03
  1.3892970e-02
 -1.2161712e-02
 -2.8623912e-02
 -7.0343502e-03
  2.9079872e-03
 -8.8176709e-03
  8.0131236e-03
 -9.9877771e-03
 -2.9341472e-02
 -2.0294657e-01
  1.3198614e-01
 -2.6836902e-01
 -8.4580439e-01
  6.2286467e-06
 -5.0619954e-01
  4.8316550e-02
  3.7495920e-01
  9.8931147e-03
 -4.6415444e-02
  2.8336951e-01
  2.2686121e-01
 -1.7921081e-02
 -2.4746407e-02
  1.6981021e-01
 -5.1739938e-03
  1.4795581e-01
 -5.7880548e-03
  9.2820026e-02
  7.0496142e-01
  7.7252048e-01
 -1.0817593e-01
  3.3909127e-01
 -6.2286481e-03
  1.1024535e-01
  5.6654572e-02
  6.8759966e-01
 -4.9127653e-02
 -1.6442792e-01
  2.6477647e-01
 -2.0804154e-03
  2.4125060e-02
 -4.8813879e-01
 -5.7273187e-02
  1.5324148e-03
 -1.5420077e-02
  2.4285140e-02
  6.4947023e-03
 -1.9055580e-01
  6.5751813e-02
 -7.1811378e-01
  5.4513704e-02
  5.3890444e-02
  3.4329426e-02
 -9.4439806e-03
 -3.0112213e-03
  4.0814709e-03
 -1.0211137e-02
 -1.0049549e-02
  2.7537320e-03
  5.0724767e-02
 -1.0388407e-01
 -1.6816160e-02
 -1.0734462e-02
 -4.3924054e-04
  1.9563943e-02
  1.5245663e-04
  1.0874218e-02
 -5.6841397e-03
  3.6946125e-02
 -1.9285802e-03
 -1.6264494e-03
 -1.1977750e-02
  5.6746375e-02
 -1.3582650e-02
  6.2099863e-03
 -1.4161197e-02
  1.5221945e-02
  2.5366608e-02
 -2.0229656e-02
  6.1487406e-03
  2.8002686e-03
  1.3253244e-03
 -1.7463805e-02
 -1.0544979e-02
 -6.3131803e-05
  7.3167431e-01
  3.2522537e-02
  8.1341155e-03
 -2.7128084e-02
  1.4744890e-02
  2.1702111e-02
 -3.2995946e-03
  5.7709888e-02
 -3.4827020e-02
  1.9116813e-02
 -2.6086468e-02
 -2.1955911e-02
 -1.8098213e-02
 -3.0640978e-03
 -1.8117115e-01
 -1.3286717e+00
  7.0954365e-01
 -2.9810870e-01
  1.3018303e+00
 -8.5608983e-01
  5.4873794e-02
  6.0243517e-01
  1.8115526e-01
  5.3778607e-01
  8.1615025e-01
  1.1084370e-01
 -3.1933182e-01
 -8.4699559e-01
 -2.4059445e-01
 -1.3991926e-03
  1.0180412e-01
  1.4108776e+00
 -3.0463325e-02
 -4.2716500e-01
 -4.3823785e-01
  1.9631878e-01
  9.3490243e-02
  5.1988673e-01
  8.3284497e-02
 -5.0661850e-01
 -2.6025224e-02
 -3.2784645e-02
  3.4652129e-01
 -3.5177335e-02
  2.4865003e-02
 -8.2356058e-02
 -3.2923821e-02
  2.9982578e-02
  5.7616872e-03
 -2.6171789e-02
 -1.1423786e-02
 -6.1508719e-02
 -4.3756413e-01
 -1.3221692e-01
  9.4449669e-02
  7.3635124e-02
 -9.8304525e-03
 -4.3185584e-02
  2.2419030e-02
  3.9263282e-02
  1.3766889e-03
 -8.7490797e-02
 -1.3747489e-02
  5.0002564e-02
 -3.3555385e-03
 -2.1275792e-02
  2.5720433e-03
 -1.5025612e-02
  7.1805358e-02
 -6.8833357e-01
  2.3434006e-02
 -1.0713901e-02
 -1.8105556e-03
 -1.6756576e-01
 -9.7281765e-03
  2.1285173e-02
  1.9088019e-02
  1.4679029e-02
  1.0347033e-01
 -3.9551593e-02
 -2.6716245e-03
  1.8804466e-02
 -2.6910963e-02
  3.0875094e-02
 -2.4948714e-02
  1.5537293e-02
  1.0315054e-02
 -3.1002374e-02
  2.7419984e-02
  1.6959948e-02
  3.8468927e-02
 -2.8985102e-02
 -3.0138949e-02
 -2.9996730e-02
 -6.1982855e-02
  1.0064926e-02
  3.3877175e-03
 -4.7286102e-03
 -2.6406825e-02
  3.4058301e-03
  5.9100533e-01
 -4.8149541e-01
 -9.2257082e-01
  1.5625199e-03
  3.1939918e-01
 -6.9649476e-01
 -4.0329870e-02
 -5.5808991e-01
  5.6085151e-02
 -2.5076281e-02
 -2.4311662e-02
  1.0456414e+00
 -7.5806089e-02
 -6.1248518e-03
 -1.3987374e-02
 -1.1640141e-03
  4.0240539e-03
 -4.9799193e-02
 -1.5114472e-03
 -2.6569945e-01
 -3.9967164e-02
 -1.3285371e-02
  2.6642261e-03
 -2.9451955e-02
  2.2405341e-02
  3.2080237e-03
  2.4998045e-01
 -9.4564416e-04
  8.8847075e-05
  4.1478908e-01
  4.9539655e-02
  3.6533613e-02
  3.4780428e-02
  6.3704783e-03
  6.2917601e-03
  3.7500706e-02
 -3.8326100e-02
 -1.2971589e-03
  2.0422682e-03
  1.5215652e-02
  6.8017435e-03
 -2.2143736e-02
  3.2074541e-02
  1.0385861e-02
  3.6163002e-02
  1.1853119e-02
  1.4666830e-02
 -4.0795347e-03
 -5.4303825e-01
 -4.0906840e-03
 -2.2427414e-02
 -7.6789904e-04
  4.4032376e-02
  3.3138732e-03
 -1.0337939e-02
 -2.7492166e-02
 -8.2585979e-03
 -1.7479867e-02
  4.5291919e-04
 -7.9696402e-03
  3.3787467e-02
  1.0769030e-02
 -3.7172727e-02
  1.8767139e-02
  1.4541870e-01
 -1.1260756e-02
 -9.4122123e-03
  1.5461076e-02
 -5.3574897e-02
  2.5485544e-02
 -3.0008934e-02
 -7.9985140e-03
 -8.5527552e-03
  1.7785678e-02
  8.5810265e-03
  2.9721150e-02
 -3.9059105e-03
 -1.2634873e-02
  3.8525057e-01
 -1.7564449e-02
 -3.7014741e-04
  1.2987233e-03
 -1.3459797e-02
 -1.5407203e-02
  1.9996479e-02
 -1.5177213e-02
 -8.8412622e-03
  2.7621886e-02
  5.4498515e-03
 -8.6504249e-03
  2.7267744e-03
 -6.9930449e-02
  1.1212402e-02
 -8.2916943e-03
 -7.0267349e-02
 -7.8564333e-03
  5.9749626e-02
 -6.0219821e-02
  2.9264253e-02
 -1.2893675e-01
  1.5161479e-02
 -1.2799310e-02
 -3.8723240e-04
  1.0215770e-02
 -2.8725239e-03
 -1.3788464e-02
 -1.7070075e-02
 -3.7792467e-02
  1.2783858e-02
 -2.3170765e-02
 -7.3852921e-03
  5.4846413e-02
 -8.8349180e-03
 -4.8809806e-03
  1.5148278e-02
 -1.5948293e+00
  2.9122047e-02
  1.5435327e-03
  3.8833835e-03
 -1.2055197e-02
 -9.5184883e-03
  2.2386648e-02
  5.2193742e-02
 -7.7848439e-03
 -1.2026975e-02
 -4.6814787e-03
 -5.9962340e-02
  4.9040769e-03
  1.0687388e-02
 -1.4083764e-02
 -1.5028842e-02
 -2.1235971e-02
  1.0413092e-02
 -2.8602142e-02
 -2.2258064e-02
 -2.4737857e-02
  5.3061832e-02
 -6.1728093e-03
 -6.6687554e-02
  3.8090415e-02
  1.2355093e-03
  2.2182255e-03
 -1.6954962e-02
  1.5752947e-02
  7.0313243e-03
 -2.9646514e-02
  8.4602416e-01
  2.0717062e-02
  1.2778270e-03
  3.3103733e-03
  2.0909717e-02
 -7.4851182e-03
 -5.9438609e-03
 -1.0668634e-02
 -3.0099601e-03
 -1.7370533e-03
  8.5808607e-03
 -2.1022854e-02
 -1.7485928e-02
 -1.1098417e-02
  2.3116496e-04
 -1.4650191e-02
 -8.2324166e-03
  6.1900698e-02
 -7.4376643e-04
  1.7364986e-02
 -3.8037393e-02
  3.9018176e-02
  3.4544305e-03
 -3.0695956e-02
 -9.3996315e-04
  8.3887381e-03
 -2.5536509e-03
  1.0693337e-02
  1.2586646e-02
 -1.6654478e-02
 -2.1991150e-01
  1.3746446e-01
 -1.8641627e-01
 -6.7096385e-03
 -6.2430787e-01
  1.1855371e-01
  1.6942559e-02
  1.2357069e-01
 -8.5844647e-04
  3.1180598e-02
 -1.8521526e-03
  1.6696814e-01
  3.2426915e-04
  4.8764706e-02
 -1.3849594e-02
  1.2469943e-02
 -8.3873041e-02
 -3.2651521e-02
 -1.1441910e-02
 -1.0506930e-01
 -2.3647865e-02
 -3.1547502e-02
 -6.7793846e-02
  2.7032846e-01
 -1.9274838e-02
 -2.8821180e-02
  3.2577530e-01
 -6.3511759e-02
  2.8574388e-03
  5.9266172e-02
  4.7143656e-03
  1.4737519e-02
  1.9217294e-02
 -1.2501258e-02
 -3.5827588e-02
 -5.0467374e-03
 -6.6728950e-02
  1.6206806e+00
  5.4887751e-05
 -2.7635310e-02
  2.6675799e-01
 -4.0799875e-02
  6.8760343e-02
  3.2883793e-02
  1.3601765e-01
  3.0649966e-02
  9.2229703e-03
 -7.6735546e-03
  7.8520633e-02
 -1.4840822e-02
  2.9428372e-02
 -2.6762614e-02
 -2.0519024e-02
 -6.6476293e-02
 -9.8876283e-04
 -4.8803460e-02
  5.6147274e-02
  4.9770766e-01
  3.2410433e-03
 -7.4644014e-02
 -1.7348719e-01
  1.6166892e-02
  6.1649317e-03
 -1.6611286e-02
 -2.1277094e-02
  8.6194836e-03
 -3.4011036e-02
  5.8224589e-02
  1.2852646e-02
  3.3646796e-02
 -1.0969314e-01
  2.0440139e-02
 -1.6374767e-02
 -2.6023131e-02
 -1.8959494e-02
  1.2696474e-02
  1.3674038e-02
 -3.0450031e-02
 -1.7372750e-02
 -3.6247678e-02
 -2.2391861e-02
  1.0170683e-02
 -7.6146075e-03
  5.5855815e-04
 -1.0500177e-02
  6.1040036e-02
  1.0726667e-02
 -6.3189059e-03
 -1.5212342e+00
 -9.6991593e-01
  6.4428031e-01
 -5.5045325e-01
  1.1466495e+00
 -1.1552589e-01
 -2.0353577e-01
  1.4207382e+00
 -1.0869873e+00
 -1.2676934e+00
  6.4639747e-01
 -1.1581101e-01
 -8.3364916e-01
 -1.3699101e+00
  7.2137159e-01
  2.7084239e-02
 -5.4287010e-01
  9.5128900e-01
 -4.6233180e-01
 -3.2929957e-01
 -2.4464331e+00
  4.3616559e-02
 -8.4890419e-01
 -1.0831265e+00
  4.8949175e-02
 -1.0550698e+00
 -4.3054413e-02
  1.9197235e-01
 -1.9062360e-01
 -1.3309350e-02
 -9.3371129e-01
  3.6618733e-01
 -9.4585276e-01
  3.6691397e-01
 -2.4260420e-01
 -8.1238401e-01
  6.0054803e-01
  2.1325575e-01
  4.1013923e-02
 -1.4246282e-01
  2.1247336e-01
  3.8562712e-04
 -1.9456595e+00
  7.8537092e-03
 -6.0303384e-01
  7.9815084e-01
 -2.7280286e-01
  8.8477664e-02
 -2.1806218e-02
 -4.0864311e-02
 -1.0864666e+00
  1.2673804e-01
 -3.9985515e-02
 -1.2364383e-01
 -1.3996372e+00
  1.1870212e-01
 -8.9385927e-01
 -9.8173082e-02
  1.1945525e+00
  1.0583824e+00
 -7.7356827e-01
 -2.4325693e+00
  2.7297848e-01
  1.3232433e+00
  1.0989683e+00
  1.0478938e-01
  2.0077989e+00
  2.5615677e-01
 -2.0907971e-01
 -2.8474754e-01
 -1.3630170e-02
 -3.0403202e-02
  6.8564457e-01
  1.0448303e+00
  4.1344947e-01
  2.5130656e-02
  7.2685748e-02
 -1.2580536e-01
 -5.9079736e-01
  4.7665977e-01
  6.4456207e-01
  4.5035112e-01
  3.1615242e-01
  1.4251242e-02
  1.0353700e+00
  4.4833720e-01
 -2.9769084e-01
 -4.9722338e-01
  5.6294810e-02
 -9.7691372e-02
  2.7463931e-01
  2.9546162e-01
 -6.5906203e-01
  4.3571129e-01
  2.3407583e-01
 -4.0408877e-01
 -6.7001849e-02
 -5.0274249e-02
  6.3311166e-01
 -1.6931033e-01
  1.6063435e-01
  2.4900569e-01
 -3.7266061e-02
  2.8689627e-02
  3.4109063e-02
  8.6471224e-01
  1.6410887e-03
 -1.1268343e+00
 -2.3746838e-01
 -2.8347771e-03
 -5.9414674e-02
  3.0037796e-01
 -8.8376082e-02
 -1.2016181e-02
 -3.8319966e-01
 -2.2247882e-01
  4.9799278e-02
 -5.2673365e-03
  4.1743526e-01
 -7.7640697e-02
 -4.6824911e-03
 -8.5697725e-02
 -3.2102849e-02
 -3.8181492e-03
 -4.5955505e-02
  4.5515109e-02
  3.5324944e-03
 -5.1187110e-01
  3.2169070e-02
 -2.7437529e-01
 -3.1902671e-03
  5.2923910e-02
  1.4450882e-02
 -8.1798770e-03
 -3.6774811e-03
 -1.8791319e-04
 -4.9306441e-02
 -1.9506281e-02
  4.4244649e-03
 -3.7887346e-02
  1.9302629e-03
 -4.6361699e-03
 -4.0993728e-03
 -1.7094962e-02
 -5.1403150e-02
  6.7498814e-04
 -4.2004298e-02
 -1.2826359e-02
  1.7090099e-02
 -4.7952193e-03
 -5.2499678e-03
  8.3886879e-03
  1.0615442e-02
  1.9841459e-02
 -4.3428969e-03
 -8.1312319e-04
 -7.7614695e-04
 -1.3602762e-02
 -1.5810333e-02
 -5.3108693e-03
  1.5353308e-03
  6.2880433e-01
  8.8115651e-03
  5.8476429e-04
  2.8853058e-03
  1.2725198e-02
 -1.3790274e-02
 -2.5211540e-03
 -3.4443699e-03
 -3.0532299e-02
 -8.3897980e-03
 -4.8886845e-03
 -4.2045075e-02
 -1.0190705e-01
  1.2711455e-02
  5.7191313e-03
 -8.6499691e-01
  9.2522576e-03
  1.7702615e-01
  2.5863552e-02
 -8.9610390e-02
 -7.1785159e-02
 -3.8197882e-02
  5.5451885e-02
  1.8274296e-02
 -3.3481035e-02
 -1.5519061e-02
 -4.0034354e-02
 -1.1689927e-02
  2.5263416e-02
 -1.3676326e-02
  5.8550397e-03
 -3.1525018e-03
 -1.1435269e-03
  5.6239497e-03
 -3.9516753e-03
  3.5756465e-02
  5.2950531e-03
 -6.3327789e-02
  3.7183920e-03
  3.2473531e-02
 -8.2433671e-02
 -9.1710955e-02
 -7.0230670e-02
 -1.7909560e-02
 -4.6738483e-02
  2.4680124e-04
 -1.2160012e-02
 -1.4610003e-02
 -2.9766766e-02
  2.2200566e-02
 -4.1068163e-02
 -1.0969200e-04
  7.9944320e-03
 -3.8483529e-04
  2.1051496e-02
  6.6909783e-02
  5.0765020e-03
  2.6407931e-03
  6.7657362e-05
 -3.1155830e-03
  5.9788156e-02
 -1.8305792e-01
 -6.6037279e-01
  1.0086886e+00
  2.5802401e-01
  1.6563322e-02
  3.3547860e-01
 -7.1424806e-01
  4.0084753e-02
 -6.0748477e-03
  7.8670539e-02
 -5.1573142e-02
 -1.5724514e-02
  1.6337603e-01
 -7.9814605e-02
 -4.6607816e-01
  3.4004494e-03
  1.5434052e-02
 -2.2110403e-02
 -2.5469515e-01
 -2.4333460e-02
 -4.7895607e-01
  5.4517076e-03
  1.1042490e-02
  3.0541959e-01
  5.2966952e-01
 -1.4040645e-03
  7.5822454e-03
 -2.8272781e-01
 -2.7003202e-03
 -6.1344136e-03
 -5.8319215e-02
  8.1657469e-03
  7.9199281e-03
 -2.2006011e-02
  2.5915257e-03
  4.1931301e-02
 -5.1935114e-02
 -1.8909074e-02
 -5.5649043e-03
 -1.7258948e-02
  1.1581749e-01
  1.2661946e-03
  9.8748451e-01
  1.9068241e+00
  1.4072938e+00
  7.6436281e-02
 -1.9948153e-02
 -1.6643220e+00
  3.0980802e-01
 -1.0358700e+00
 -3.6846486e-01
 -3.4313589e-01
  1.0598885e-03
 -6.1015874e-01
  1.2394891e+00
  2.8014730e-03
  7.8773318e-04
 -3.0823400e-02
  6.5148965e-02
  3.1193417e-02
 -4.2075542e-01
  7.3240012e-01
  1.8281192e-01
 -4.9475599e-02
 -4.2881602e-03
 -2.0401484e-01
  8.9385742e-03
  5.2115240e-04
  5.3465825e-01
 -5.4595597e-02
 -1.8343825e-02
 -1.8215222e+00
 -3.9932899e-02
 -1.7523356e-02
 -6.1129160e-02
  5.4203854e-03
  2.2793172e-02
 -3.1401934e-03
  9.3547292e-03
  4.0846061e-02
  1.2174783e-02
 -4.9123960e-03
  1.5689753e-01
  3.6623463e-02
  6.2534042e-02
  2.3737784e-02
 -3.8660732e-01
 -4.7503266e-01
  7.0120859e-01
  1.2337071e+00
 -5.4006195e-01
 -2.3158275e-01
 -3.1349659e-01
 -1.4762386e-02
 -1.5744739e+00
 -7.1521437e-01
 -7.9401124e-01
 -8.6188948e-01
 -6.1927825e-01
 -8.0373604e-03
  4.0852493e-01
  2.1407288e-01
  2.4750376e-01
 -9.9480081e-01
 -2.1297879e+00
 -1.1096104e+00
  3.6345622e-01
  5.0806895e-02
 -4.3649971e-02
 -1.6342391e-03
 -3.0030863e-02
 -2.2162395e+00
 -7.9496071e-02
  8.2548156e-02
 -6.1571859e-03
  2.2992831e-02
 -6.3836589e-02
 -1.9467659e-02
 -4.9594086e-01
  1.8319212e-02
  1.0786142e+00
 -4.1407733e-03
 -7.1839564e-03
 -1.7423997e-02
 -4.9858843e-03
  2.3559542e-02
  7.5645953e-01
  2.0397447e-02
  1.4310995e-02
  3.9002269e-03
 -1.0456482e+00
 -1.2359875e+00
  7.2384244e-01
 -4.0966943e-02
  8.1081212e-01
 -1.5452737e+00
 -1.8889780e-01
 -1.0333978e+00
 -1.0495716e+00
 -1.1465404e+00
  3.0854079e-01
 -7.2962195e-01
  3.5130036e-01
  1.0094540e+00
 -5.2959539e-02
  2.1941978e-01
 -9.7803390e-01
  9.4445467e-01
 -6.8011248e-01
 -2.7517208e-01
  6.2179619e-01
  2.9625717e-01
  6.8509810e-02
 -1.2014230e+00
  7.3290199e-01
  1.6528163e-02
  1.0288114e-02
  9.6970540e-01
 -2.9298216e-03
  3.7911436e-01
 -3.6707780e-01
  1.7011419e-01
  2.8120670e-02
  3.5449632e-02
  5.6670837e-02
  3.1807905e-01
  2.2513644e-01
  2.8386566e-01
  5.6526339e-01
 -5.2692100e-02
  2.9917538e-01
  1.4740746e-02
 -6.7439556e-02
 -1.0909765e-01
  9.2789084e-03
  1.4752524e-02
 -7.2179209e-03
  2.3438357e-02
 -3.1212270e-01
  7.8968666e-03
  2.4431147e-02
 -8.3686970e-03
  3.3019776e-03
  1.4824285e-02
  9.7306836e-03
 -8.1395637e-03
 -1.3045907e-03
  2.9922833e-03
  1.1227026e-02
 -4.0583938e-02
 -3.5206277e-02
  1.8344463e-01
  2.2094697e-02
  3.6101225e-03
  2.4654003e-02
  7.8408292e-04
  4.8616747e-03
  9.2293024e-03
 -6.7791245e-03
  2.5201209e-02
  5.4414626e-03
  3.1220656e-02
  5.1072311e-02
  6.4571355e-03
  3.0022062e-02
 -1.6632362e-03
  5.5972427e-02
  1.4393614e-02
  1.3460000e-02
 -6.0345070e-03
  2.0956895e-01
 -9.0773711e-03
 -1.1069812e-02
  7.6386700e-03
  1.2047694e-02
 -7.2372460e-01
  2.4776716e-02
  4.0638986e-01
  1.5169424e-01
 -4.0814579e-03
  6.1732937e-02
  5.3024031e-02
  1.8719366e-01
  3.5743096e-01
  2.5877893e-02
  4.3328127e-01
 -4.8229903e-02
 -1.6873738e-02
 -3.6793313e-04
 -5.5759919e-01
 -2.7583735e-02
  2.0650921e-02
  6.8228091e-03
  1.0047789e-02
 -9.8307966e-04
  1.4739831e-01
  1.4395939e-02
 -5.2480079e-02
  1.2342914e-02
  5.7786833e-02
  1.5750671e-02
 -2.4958510e-02
 -2.9589306e-03
 -2.2022812e-02
 -1.6870569e-02
 -8.2389228e-03
  2.3752633e-02
 -6.5664249e-03
  1.7407641e-02
  1.7394455e-02
  9.7496353e-02
  6.4530581e-02
 -3.4122695e-03
  7.2406809e-04
 -1.0288301e-02
 -2.3279587e-02
  1.2141801e-02
 -1.8434724e-04
 -2.4623061e-02
  8.0182053e-02
 -7.7479328e-03
 -1.7434532e-02
 -2.1548167e-02
 -3.9705697e-02
  2.1320408e-02
  1.3269320e-02
  9.7562321e-02
 -1.1097402e-02
 -4.8318047e-02
 -1.4818611e-02
  1.7068443e-01
 -1.6440243e-02
 -1.8829338e-02
 -1.0834972e-01
  9.5724035e-03
  6.0941637e-02
  7.1819741e-03
 -3.4278442e-04
 -8.4436340e-03
  7.8541070e-02
 -5.1833373e-02
  1.2301874e-02
  1.5026839e-02
 -3.8902920e-02
 -1.1104434e-02
  1.2045964e-01
  2.4712455e-02
  9.4367535e-04
 -1.8644460e-02
  1.7599156e-02
  1.8706516e-03
 -7.0921116e-02
 -1.3768504e-02
 -1.6735466e-02
 -5.8967203e-02
  4.6303994e-03
 -2.1568801e-01
 -6.9286965e-02
 -6.0233749e-02
  1.0393046e-01
 -5.0305400e-02
 -8.6735236e-03
  1.0813599e-02
  1.9667689e-02
  1.9659686e-03
  6.1237160e-03
 -4.2207882e-01
  2.8695858e-01
 -1.5091684e+00
  2.6530060e-01
 -2.8555188e-01
 -1.3062811e+00
 -6.1844754e-01
 -3.1811481e+00
 -6.2329197e-01
 -5.5463910e-02
 -4.2485151e-01
  3.1078653e-02
  8.7619913e-01
 -1.4562127e-01
 -4.4965234e-01
 -6.7900687e-02
 -8.4339082e-02
 -4.4737179e-02
 -1.2346838e-01
  9.0660590e-01
 -2.4352272e-03
 -5.5055518e-02
 -5.1646531e-01
 -1.7268109e-01
 -1.1090238e-02
 -1.1000293e-02
  2.8977776e-01
 -1.5611156e-02
 -3.4832757e-02
 -4.8627153e-01
 -1.4074370e-01
  5.2459527e-02
 -1.6548431e-01
  4.4689804e-01
  3.8119279e-02
 -1.1460753e-01
  7.5282007e-03
 -6.0342573e-02
  2.5644764e-02
  9.8895088e-02
 -2.8314453e-02
  3.7516929e-02
  7.7172332e-02
  3.3344772e-02
 -4.9340636e-01
  1.9593702e-01
  5.0166583e-01
  3.1150972e-02
 -7.9809898e-01
 -1.5314684e+00
  1.4246316e-01
 -2.0494504e+00
 -2.4840282e-01
 -2.8025113e-02
  3.5195726e-01
  6.4093614e-01
  4.8040763e-01
  2.2341521e-01
 -6.2822407e-01
  3.2626611e-01
 -8.0547027e-02
  4.5924968e-01
  1.1335068e+00
  4.2422840e-01
 -6.3867676e-01
  4.1703060e-02
 -4.3716342e-03
 -3.8577177e-02
  4.3110374e-02
  1.7051826e+00
  7.5935578e-01
 -6.8624932e-01
 -9.6068628e-02
 -3.7689215e-01
  5.3512133e-03
 -2.0220084e-01
  9.7309804e-01
 -2.4526091e-03
 -1.8891520e-04
  3.9957698e-02
 -2.4485298e-01
  4.2029712e-03
 -1.4473286e-02
 -3.4337290e-02
 -1.9649084e-01
 -7.3029883e-02
 -1.0397756e-02
  2.2122040e-01
 -4.7833920e-02
  1.5903360e-03
 -9.6196709e-03
  1.0337898e-02
 -7.8471974e-03
 -1.7631014e-01
 -4.2249650e-02
 -4.0797818e-02
  1.8235065e-02
 -1.2186857e-02
  4.6187858e-03
 -3.0932520e-03
  1.0062644e-02
  3.8526806e-03
  2.1856690e-02
  1.3223019e-02
  1.0459800e-01
  1.2649867e-02
  1.8290684e-02
 -1.5723152e-02
 -5.8298507e-03
  8.2372408e-03
 -2.9887440e-02
 -3.2323368e-02
 -3.3019457e-04
  1.0605603e+00
 -2.8639999e-03
  5.2379467e-02
 -1.3655547e-02
 -1.7600898e-02
 -2.1555105e-02
 -2.2398274e-02
  5.1048314e-03
  4.4423183e-03
 -8.1051001e-04
  4.8124455e-03
  5.9203291e-03
  1.2333784e-02
 -7.7933236e-03
  3.2976855e-02
  2.2080535e-02
  3.2071628e-02
 -8.6167804e-04
 -1.1019905e-02
 -5.5706050e-02
  4.3699078e-02
  4.7446493e-02
 -2.6838519e-03
 -2.2440861e-01
 -8.0412781e-01
  2.0578235e-02
  1.4818749e-01
 -2.0710513e-01
  2.4908019e-04
  6.9257859e-03
  5.1169891e-02
 -5.5059541e-02
  9.2048775e-03
  5.5012997e-02
 -5.9699818e-02
 -2.0685973e-02
  6.4995892e-02
  2.8738456e-02
 -5.2354563e-02
  4.8000779e-02
 -1.3162004e-02
  3.0190021e-02
 -1.9013992e-02
 -6.3865739e-03
  2.5090808e-02
 -5.8242913e-02
 -5.5101715e-02
  9.9705970e-03
  1.3112596e-02
 -1.5271693e-03
 -4.5165841e-02
 -1.7294390e-02
 -1.4691148e-02
 -1.7662516e-02
 -4.2906231e-03
  6.0135811e-03
 -1.1204201e-03
 -3.5121858e-02
  8.0091329e-03
 -2.0511255e-02
 -2.9116008e-01
 -7.9797767e-03
 -1.7513072e-02
  7.1059301e-02
 -7.1599253e-02
 -3.0897856e-01
 -2.9697530e+00
  6.8285443e-02
  2.5776875e-01
 -4.2947490e-02
  3.9902505e-01
 -6.6005689e-01
 -5.5592600e-03
 -2.2595160e-01
 -4.9146166e-01
 -6.6719341e-01
  2.9163113e-01
 -2.8940843e-02
 -3.1306818e-02
 -2.3895897e-01
  1.8895148e-01
 -6.5360673e-02
  1.8925403e-01
  2.5542209e-01
 -9.7457962e-03
 -4.5574179e-01
 -7.6371747e-01
  1.8203251e-02
 -9.6210465e-03
 -1.1040826e-02
 -1.4295058e-01
 -3.7179258e-02
 -4.2132127e-01
 -3.8950056e-01
 -6.1517887e-02
  4.8845452e-03
 -4.1088805e-01
 -2.0700452e-01
  3.7513068e-03
 -5.5991147e-02
 -6.8222232e-02
 -2.6497269e-01
 -1.3094920e-01
  6.7898449e-03
  1.2188713e-02
  1.8891858e-02
 -1.3464522e-02
  1.6358888e-02
 -1.1179823e-02
  3.7335996e-02
 -4.5133643e-03
  5.3971881e-01
 -1.2407230e+00
 -1.0955635e-02
  3.5582474e-01
 -5.1955883e-03
 -1.5925383e-02
  3.1848218e-02
  7.2341564e-04
 -1.3244603e-02
  9.7601889e-03
  4.4441852e-03
  2.2566179e-03
  3.3953490e-03
